%YAML:1.0
---
opencv_ml_ann_mlp:
   format: 3
   layer_sizes: [ 180, 60, 20, 1 ]
   activation_function: SIGMOID_SYM
   f_param1: 6.6666666666666663e-01
   f_param2: 1.7159000000000000e+00
   min_val: -9.4999999999999996e-01
   max_val: 9.4999999999999996e-01
   min_val1: -9.7999999999999998e-01
   max_val1: 9.7999999999999998e-01
   training_params:
      train_method: BACKPROP
      dw_scale: 1.0000000000000001e-01
      moment_scale: 0.
      term_criteria:
         epsilon: 1.0000000000000000e-08
         iterations: 10000
   input_scale:
      - 7.5265516770963066e-04
      - -2.8715550843513729e+00
      - 1.7577193006494112e-03
      - -1.3440693585632497e+00
      - 2.6983555031886929e-03
      - -1.3574527084707917e+00
      - 4.9224724885909522e-03
      - -1.3420300828061800e+00
      - 6.5100401843886692e-03
      - -1.3367282511944734e+00
      - 3.9339310061472527e-03
      - -1.0653085164646761e+00
      - 8.4600807944957869e-03
      - -1.3733531156398162e+00
      - 1.1491040702770622e-02
      - -1.1487210355869699e+00
      - 5.8920218877122500e-03
      - -1.0888456448492239e+00
      - 7.8049779102141057e-03
      - -1.0635583232318422e+00
      - 1.0597528818172186e-02
      - -1.1459461162050191e+00
      - 9.3699224934309898e-03
      - -1.2221502238931821e+00
      - 1.3154600426010540e-02
      - -1.0944627554440769e+00
      - 1.3298677151808625e-02
      - -1.5470794419937366e+00
      - 1.1679784067560163e-02
      - -9.9784288550522326e-01
      - 1.5558240768285011e-02
      - -1.5371541879065591e+00
      - 2.9262513863525647e-02
      - -1.8337842021142738e+00
      - 2.9321030753708139e-02
      - -1.4474815515413919e+00
      - 2.0189024163025218e-02
      - -1.0330050696747903e+00
      - 1.5413495368910566e-02
      - -9.1658919127121508e-01
      - 1.7950737175995820e-02
      - -1.8758520348915633e+00
      - 1.2157423000768733e-02
      - -7.9063774248332652e-01
      - 8.8799690608208949e-03
      - -7.3111745267425365e-01
      - 6.8636119773655977e-03
      - -7.6941090266268342e-01
      - 4.2712709089691055e-03
      - -7.9573777034094439e-01
      - 4.1266231521418948e-03
      - -7.2257171394004571e-01
      - 1.3913537348925543e-02
      - -7.4391046358921908e-01
      - 2.4823509936817364e-02
      - -7.0416023187438592e-01
      - 2.6958846381599084e-02
      - -7.0093000592157617e-01
      - 5.5360353866481249e-02
      - -6.2741734382012082e-01
      - 1.3747531871300936e-02
      - -3.5147856484292728e+00
      - 9.8907071009368053e-01
      - -3.2969023669789349e-01
      - 2.2834330277994574e-01
      - -3.5773784102191497e-01
      - 1.2958026383720402e+00
      - -3.4554737023254406e-01
      - 4.3278735048383027e-01
      - -7.9344347588702213e-01
      - 3.8987350656734954e-01
      - -1.6504645111351131e+00
      - 2.3505746224970844e-01
      - -3.1419347454044364e+00
      - 1.
      - 0.
      - 1.2449954931244725e-01
      - -1.2283955532161464e+00
      - 1.
      - 0.
      - 8.9602153663424833e-01
      - -6.8694984475292376e-01
      - 1.
      - 0.
      - 2.7551938438899187e-01
      - -2.0388434444785402e+00
      - 8.3045479853739967e-01
      - -1.2456821978060995e+00
      - 1.
      - 0.
      - 5.5517110511941060e-02
      - -2.5278790986437163e+00
      - 5.5708601453115554e+00
      - -1.8569533817705183e-01
      - 1.
      - 0.
      - 1.2048289933537482e+00
      - -8.0321932890249870e-01
      - 1.
      - 0.
      - 4.2820935149503497e-02
      - -1.7142647704851233e+00
      - 1.3972392984978670e+00
      - -6.0547036268240906e-01
      - 1.
      - 0.
      - 5.3743077292501396e-01
      - -9.3154667307002426e-01
      - 4.8820841617808947e-01
      - -9.4386960461097302e-01
      - 4.5491111778700982e-01
      - -9.2498593950025321e-01
      - 1.6539535392599138e+00
      - -6.0644963106196836e-01
      - 1.
      - 0.
      - 1.
      - 0.
      - 1.
      - 0.
      - 4.2157457048950708e-01
      - -9.2746405507691565e-01
      - 1.
      - 0.
      - 1.
      - 0.
      - 5.5708601453115554e+00
      - -1.8569533817705183e-01
      - 5.5708601453115554e+00
      - -1.8569533817705183e-01
      - 2.5264557631995572e+00
      - -2.5264557631995571e-01
      - 2.0234735487954958e-01
      - -1.4366662196448019e+00
      - 2.3426064283290908e+00
      - -3.1234752377721209e-01
      - 1.0204790028060395e-01
      - -1.2041652233111266e+00
      - 5.5708601453115554e+00
      - -1.8569533817705183e-01
      - 2.3494930862873953e-01
      - -2.3181665118035633e+00
      - 5.5708601453115554e+00
      - -1.8569533817705183e-01
      - 3.3000924038809809e-01
      - -8.3602340898318184e-01
      - 1.2500000000000000e+00
      - -5.0000000000000000e-01
      - 5.5708601453115554e+00
      - -1.8569533817705183e-01
      - 3.0479181007612696e-02
      - -1.9974023286988853e+00
      - 1.
      - 0.
      - 1.6245910832216470e+00
      - -3.7907125275171766e-01
      - 1.
      - 0.
      - 5.5708601453115554e+00
      - -1.8569533817705183e-01
      - 2.1668134665641187e-01
      - -1.3073107914936850e+00
      - 4.0089186286863656e+00
      - -2.6726124191242440e-01
      - 1.
      - 0.
      - 4.4278622040968017e-02
      - -1.5290884144814287e+00
      - 3.7028572395848430e-01
      - -1.0368000270837561e+00
      - 5.5708601453115554e+00
      - -1.8569533817705183e-01
      - 2.9417420270727606e+00
      - -3.9223227027636809e-01
      - 9.1456614127453850e-01
      - -6.7068183693466155e-01
      - 1.
      - 0.
      - 1.
      - 0.
      - 1.6790457725831737e-02
      - -5.3320896917999647e+00
      - 1.
      - 0.
      - 1.8569533817705188e+00
      - -1.8569533817705189e-01
      - 1.4981285083167672e+00
      - -6.4918902027059922e-01
      - 5.5708601453115554e+00
      - -1.8569533817705183e-01
      - 5.0450459549723436e-01
      - -6.3903915429649683e-01
      - 1.9199238189342657e-01
      - -2.2527106142162050e+00
      - 5.5708601453115554e+00
      - -1.8569533817705183e-01
      - 4.1926274578121064e-01
      - -6.9877124296868443e-01
      - 1.0874991503916205e+00
      - -6.1624951855525156e-01
      - 1.4981285083167670e+00
      - -8.4893948804616792e-01
      - 2.7277236279499045e-01
      - -6.5465367070797709e-01
      - 1.4301938838683885e+00
      - -4.7673129462279618e-01
      - 1.3575355526247493e-01
      - -7.1496872438236792e-01
      - 4.0689422938557973e-01
      - -5.6965192113981156e-01
      - 9.6978254310242262e-02
      - -2.5472954798823633e+00
      - 2.4487552263762052e-01
      - -6.6116391112157546e-01
      - 8.9602153663424833e-01
      - -5.0774553742607409e-01
      - 1.0961761428628045e+00
      - -4.0193125238302829e-01
      - 2.4304448607313422e-01
      - -7.1293049248119367e-01
      - 9.4348486538582355e-02
      - -2.1542904426309635e+00
      - 2.6553871969599369e-01
      - -6.7269808989651736e-01
      - 1.2576654244509557e+00
      - -4.6114398896535042e-01
      - 5.6806364689182753e-01
      - -1.1171918388872608e+00
      - 2.0981586247366615e-01
      - -9.3717751904904223e-01
      - 1.8559225999082621e-01
      - -6.2482727530244819e-01
      - 4.9426680473920248e-01
      - -3.9541344379136201e-01
      - 1.
      - 0.
      - 5.5708601453115554e+00
      - -1.8569533817705183e-01
      - 1.
      - 0.
      - 5.7987283365672493e-02
      - -3.4251155374657221e+00
      - 1.
      - 0.
      - 1.7896499588156809e+00
      - -4.1758499039032554e-01
      - 1.
      - 0.
      - 3.7210420376762537e-01
      - -6.2017367294604231e-01
      - 1.4125821872073380e-01
      - -6.4037059153399323e-01
      - 1.2668720104165232e-01
      - -9.3748528770822726e-01
      - 5.5708601453115554e+00
      - -1.8569533817705183e-01
      - 3.9666441401095887e-01
      - -9.2555029935890409e-01
      - 2.1004201260420148e+00
      - -4.2008402520840299e-01
      - 4.5428480571701141e-01
      - -1.5597111662950724e+00
      - 1.
      - 0.
      - 1.5051072157413536e-01
      - -8.5791111297257161e-01
      - 2.7546130572218824e-01
      - -7.0701735135361654e-01
      - 1.
      - 0.
      - 2.9938688468675112e-01
      - -1.7663826196518317e+00
      - 1.
      - 0.
      - 1.
      - 0.
      - 4.3685202833051895e-01
      - -6.1159283966272648e-01
      - 1.
      - 0.
      - 1.1716158058130755e-01
      - -2.4018124019168048e+00
      - 3.3522168742909791e-01
      - -6.5926931861055915e-01
      - 5.2470329858389009e-01
      - -5.4219340853668652e-01
      - 1.9011727515734338e+00
      - -5.7035182547203012e-01
      - 1.7801724872907798e+00
      - -2.3735633163877065e-01
      - 2.1798158327181966e-01
      - -7.0480711924555028e-01
      - 2.7653587052676160e-01
      - -4.7011097989549472e-01
      - 6.7082039324993692e-01
      - -4.4721359549995793e-01
      - 1.
      - 0.
      - 1.
      - 0.
      - 1.4589838293950040e-02
      - -2.6475693224088008e+00
      - 1.
      - 0.
      - 1.3927150363278888e+00
      - -1.8569533817705183e-01
      - 5.3977442142791532e-01
      - -5.5776690214217917e-01
      - 5.5708601453115554e+00
      - -1.8569533817705183e-01
      - 6.0971076084969245e-01
      - -5.4873968476472323e-01
      - 1.4298527097206282e-01
      - -1.2535042088550841e+00
      - 2.3426064283290908e+00
      - -3.1234752377721209e-01
      - 7.6053018984509080e-01
      - -7.0982817718875146e-01
      - 1.0107256807938136e+00
      - -5.7274455244982769e-01
      - 3.0180109077147338e-01
      - -1.4385851993440231e+00
      - 1.3363062095621221e+00
      - -2.6726124191242445e-01
      - 9.1456614127453850e-01
      - -6.7068183693466155e-01
      - 3.5042807574006529e-01
      - -8.0598457420215008e-01
      - 3.1842899630411570e-01
      - -6.1562939285462370e-01
      - 1.7701176073345593e-02
      - -2.0462559540787506e+00
      - 9.1970900922744880e-01
      - -4.9051147158797270e-01
      - 1.3927150363278888e+00
      - -6.4993368361968151e-01
      - 5.9761430466719678e-01
      - -5.9761430466719678e-01
      - 2.6071190436430020e-01
      - -7.2130293540789714e-01
      - 9.1822155594377272e-02
      - -1.6374951080997280e+00
      - 5.9246437915002326e-01
      - -5.1346912859668681e-01
      - 3.0586777135731963e-01
      - -5.0977961892886603e-01
      - 9.6689212803095642e-02
      - -1.4857909034075698e+00
      - 8.7318208089720878e-02
      - -7.7713205199851587e-01
      - 4.7497140362425097e-02
      - -6.6495996507395139e-01
      - 3.2253198375654636e-02
      - -6.7409184605118189e-01
      - 1.2803576049944648e-02
      - -8.2455029761643539e-01
      - 6.7823973025205875e-03
      - -7.5940241797222174e-01
      - 4.2106140695816873e-03
      - -1.0300565552220000e+00
   output_scale:
      - 1.0526315789473684e+00
      - 9.9999999999999989e-01
   inv_output_scale:
      - 9.4999999999999996e-01
      - -9.4999999999999996e-01
   weights:
      -
         - 4.6885914628800518e-03
         - 7.2413714035393173e-03
         - 5.5343725515658269e-03
         - 1.3448162173697122e-02
         - 3.8176381585801550e-04
         - -3.4575775115519734e-03
         - -1.2071283512390139e-02
         - 9.9112220420642383e-03
         - -4.3179708300165962e-03
         - 1.5779300938834383e-03
         - -6.1789069919946493e-03
         - -1.2424469036424428e-02
         - 3.0266721319554532e-02
         - -1.1048181318429901e-02
         - -1.9432563497654407e-02
         - -3.6800039710794467e-03
         - 5.8590949860721033e-04
         - -1.1575988015975615e-03
         - 1.4653169631464886e-02
         - 1.0724980277523860e-02
         - 8.1297848440099185e-03
         - -2.0945108404198602e-02
         - 1.9643846925844012e-02
         - 7.8497464688300801e-03
         - 1.2893556804130261e-02
         - -3.5495829251382311e-04
         - -8.9238792866488358e-03
         - -7.0753436111328167e-03
         - -2.1208790689997047e-02
         - -1.2066925729119618e-02
         - -9.6195754605764953e-03
         - 1.6027620053850685e-03
         - 2.3730131948505630e-02
         - 2.9949292642086390e-02
         - 1.2428511670768017e-02
         - -2.3463446458973224e-03
         - -1.2910689713711397e-02
         - 6.8518133730391428e-04
         - -4.8463169899838924e-03
         - 8.2328815683023800e-03
         - -3.8146605854492163e-04
         - -1.3081263215904014e-02
         - -1.5254554818015267e-02
         - -4.5658977347172239e-03
         - -1.7291187169364709e-02
         - -2.9080913068090393e-03
         - 9.2711299153540785e-03
         - -5.9618952754195865e-03
         - 1.2198453194608549e-02
         - 6.7886294093899820e-03
         - -2.1891553903450808e-03
         - -3.4070882494766463e-03
         - 6.6551409424155461e-03
         - -2.1870255887992281e-03
         - 9.3871746860032836e-03
         - 3.3848172764474216e-02
         - -3.3900020330010164e-03
         - 2.6227031925574167e-02
         - -2.7031812482503229e-03
         - 4.0338366041432544e-03
         - -1.7766603408976629e-02
         - -1.2019043551757745e-02
         - -1.8993450077730293e-02
         - -2.5217203182635976e-02
         - 5.2809956965039189e-03
         - 4.4440025778494513e-03
         - 1.1731941297058623e-02
         - -9.9057512987809531e-04
         - 1.8501433273880187e-02
         - -1.4421621256599603e-02
         - -5.1037498830984436e-03
         - 8.6222389833661688e-03
         - -3.7232610584341345e-02
         - 1.2661735043181402e-03
         - 7.2359779435970670e-03
         - 7.7560090467981525e-03
         - 1.0313989636442486e-02
         - -5.9301853365160036e-03
         - -1.9501926044207030e-02
         - -7.2186363213168616e-03
         - -1.8934534514560772e-02
         - 2.1971774129562652e-02
         - -2.8769433862009666e-02
         - -1.6240160684536899e-02
         - -1.2986675005467461e-02
         - -1.5336606576211848e-02
         - 1.3701482779304264e-02
         - -1.4817202921241609e-02
         - 1.4707017594578514e-02
         - 2.2303386539733783e-04
         - 2.8229842223207204e-02
         - 1.1328602756230897e-02
         - -3.6976039810172744e-02
         - -2.8619405293227838e-02
         - -2.5137732702487960e-02
         - -3.7162997746429381e-04
         - 9.0173765617718189e-03
         - 1.3319153024585955e-02
         - 8.8433452430339773e-03
         - -1.6433625161721376e-02
         - 6.5525764314822502e-03
         - 1.2496157365875409e-02
         - 2.3415270567766707e-02
         - 9.4753357734157096e-03
         - 1.3220650757347548e-02
         - -8.6021036422583349e-03
         - -8.7602048221588650e-04
         - 4.5586526655866837e-03
         - -1.0046317682862172e-02
         - 9.9387824708823628e-03
         - -1.2439308453511946e-02
         - -9.3419463860868902e-03
         - -4.4597146340070656e-03
         - -1.1397492456586825e-04
         - -2.2342019713720912e-03
         - -3.8510409413912525e-02
         - 1.5131631718914000e-04
         - -1.9373590576485546e-02
         - 1.2931301706723382e-02
         - 1.0981751732504826e-02
         - -1.4795610106543487e-02
         - -3.8194227367150820e-03
         - 1.8687210324633689e-03
         - -1.4272012258017762e-02
         - -3.3991114543308804e-03
         - 2.5370981307211182e-03
         - 6.6043022802334582e-03
         - 7.2048021505555296e-03
         - 3.4264600797859557e-03
         - -9.1608397991042607e-04
         - 5.4776932265033695e-03
         - -3.1882793791906004e-03
         - -1.5089150719202055e-02
         - 6.0200448414998919e-03
         - 3.0190242293237821e-03
         - 3.0660218529614657e-03
         - -2.5026901992229295e-03
         - -4.6121706745916018e-03
         - -2.1007854625814185e-02
         - -6.6540600194818760e-03
         - -1.9838374275786106e-03
         - 8.6824367784409779e-04
         - -2.1164766543594584e-02
         - 1.8430638708818258e-05
         - -4.3595657288759259e-03
         - 3.3748215811774600e-03
         - 5.5372780638352631e-03
         - -6.4232314054462128e-04
         - 1.5710826162853270e-02
         - 4.0604902488472743e-03
         - 9.6808810860611778e-03
         - 2.3088237819057023e-03
         - -2.1094434476046933e-02
         - -1.0490439366065554e-02
         - -1.0150571186735817e-02
         - -8.0279870372535721e-03
         - 3.2703214542498791e-03
         - -3.1451335561875370e-03
         - -7.8369756868647261e-03
         - -2.2054028183848859e-03
         - 1.1218232669118727e-02
         - 1.0496852645596248e-02
         - 9.1800070751260430e-03
         - 9.7242980439191593e-03
         - -6.9578277543843698e-03
         - 6.0945524529888726e-03
         - -1.0659254628761916e-02
         - -9.0341878649601842e-03
         - 4.6839406258196662e-03
         - 1.1533140596475831e-02
         - 7.7922324118525690e-03
         - -1.0467331821624118e-02
         - -9.6818331488832329e-03
         - -4.8965986919883410e-03
         - -5.8609887969047168e-03
         - -4.7252958199397767e-03
         - -1.7239545289626482e-03
         - -1.3401178692615335e-02
         - -4.2048484621815567e-03
         - 1.1663527692826145e-02
         - -3.2023067394252605e-02
         - -1.7146392346867802e-02
         - -2.5633046725322912e-02
         - -3.1852896688581295e-02
         - -4.3766993860322708e-03
         - 1.6392876113581364e-02
         - 1.0410098458618783e-02
         - -2.6092437678008258e-03
         - 1.8338557753344299e-02
         - -1.6897853294749819e-02
         - 2.4263564050127557e-03
         - 1.3557779728952139e-02
         - -2.9645134090902258e-02
         - 1.7985004528726287e-02
         - 2.3113703131114358e-02
         - 2.0842496035959990e-03
         - 5.0635390579324095e-03
         - -4.9416093797246992e-03
         - -1.5638960963020226e-02
         - -8.4940786113246458e-03
         - -2.5397246675997128e-02
         - 7.4735895413511524e-03
         - -2.6206880492718153e-02
         - -1.6968212988105785e-02
         - -1.5726755096641891e-02
         - -1.7783582471110147e-02
         - 1.2277966369140752e-02
         - -4.5072929487309536e-03
         - 2.4562548472698779e-02
         - 1.2452095098094421e-02
         - 1.3298419171227396e-02
         - 1.4454935919853204e-02
         - -2.6177963257672743e-02
         - -3.5818607032443890e-02
         - -3.2529980827047673e-02
         - 2.3215225460209042e-03
         - 1.6651562113859198e-02
         - 6.1664742154729606e-03
         - 2.6370225003798542e-04
         - -1.7665887118403438e-02
         - 1.8845474989290748e-03
         - 1.8476767232992127e-02
         - 2.3164854903760426e-02
         - 1.9203286783420960e-02
         - 1.1449044173013657e-02
         - -3.2081029569518329e-03
         - -1.7236033401702159e-02
         - -2.7495220051010133e-03
         - -1.6585796061575224e-02
         - 7.6057799945586828e-03
         - 3.4461893614497648e-03
         - 7.6089075487072201e-03
         - -1.8321549344744736e-02
         - -6.7222995768377704e-03
         - -2.9514163173902999e-03
         - -4.1180987023475078e-02
         - -2.0715012524692641e-02
         - -2.9214509068379163e-02
         - 3.3668657057064188e-03
         - 1.6908295068788881e-02
         - -2.3747031112726340e-02
         - -1.0713385802066989e-04
         - -1.1153377679809468e-02
         - -2.7317546156156797e-02
         - 2.2205696865167518e-03
         - 2.6481051976619601e-03
         - 1.6004564892630337e-02
         - -5.6879170332427911e-03
         - -2.5633194171854707e-03
         - -9.1920790587844900e-03
         - -1.6922374198872733e-03
         - 2.8570536222733952e-03
         - -2.5564184741618385e-02
         - 1.7413508182951620e-02
         - 1.4246288133355593e-03
         - 3.6158088506506943e-03
         - 3.5804369430429291e-03
         - 8.2969730864092244e-03
         - -2.3477869634347802e-02
         - 2.7929102779659953e-03
         - -1.0263762217604172e-02
         - 7.5964053522477003e-03
         - -1.9974740732583707e-02
         - -1.4773768402295917e-03
         - -1.9198725477618318e-03
         - -2.8861924547868211e-03
         - 6.8700110872934091e-03
         - -2.8686842339996879e-03
         - 3.4355468901396406e-03
         - 1.4630077327461607e-03
         - 4.2319657135485318e-03
         - 8.5190905491212068e-03
         - -2.6462938623530295e-02
         - -1.5745031519239346e-02
         - -1.1623818363134135e-02
         - 1.3255030308669474e-04
         - 1.0992096547514167e-02
         - 1.5353324844598652e-03
         - 1.0635977335976021e-02
         - -1.1285313370183226e-02
         - 4.1288249742372383e-03
         - 1.0135692509537933e-02
         - 6.5887774354527707e-03
         - 1.8376512213336249e-02
         - 1.4452546102923203e-02
         - -1.4870537032159927e-02
         - 3.2131785443166739e-03
         - 6.8574616023652796e-03
         - -1.4749116480706809e-02
         - 1.0392381109248058e-02
         - -8.0840020219911084e-03
         - -7.5170717112913463e-03
         - -7.5207356856900184e-03
         - 8.0317177148536336e-03
         - -8.5178240360579607e-03
         - -2.7912175941065431e-02
         - -5.1921152309143126e-03
         - -2.4097256127018084e-02
         - 4.9606186355021379e-03
         - 1.1313933779565046e-02
         - -4.6610915942703543e-02
         - -3.7695256031942279e-02
         - -3.3590262495981758e-02
         - -5.9152119617909615e-02
         - -4.0250024544683368e-03
         - 1.8380742950825271e-02
         - 2.0660258174452068e-02
         - -1.4022703576772317e-02
         - 2.8506737353427427e-02
         - -2.3503950432467623e-02
         - 2.0062798690205649e-02
         - 2.6932366157007312e-03
         - -7.8801200188880857e-02
         - 1.6540682182664895e-02
         - 3.8385671334265792e-02
         - 1.1304292872177758e-02
         - 1.6523896136847814e-02
         - 5.0915593946598446e-03
         - -4.6611675453790732e-02
         - -1.2381354790461407e-02
         - -7.0056797117299383e-02
         - 2.3244323867044572e-02
         - -4.1326101781714183e-02
         - -2.4998610885171711e-02
         - -4.5514753197487517e-02
         - -2.1530337320334030e-02
         - 4.1255204129768144e-02
         - -8.2319064870622540e-03
         - 5.3998126073942845e-02
         - 8.5094363046491223e-03
         - 4.7845866586606847e-02
         - 1.5345485218651639e-02
         - -5.1919763459235921e-02
         - -6.3681445048355823e-02
         - -4.8501536061740853e-02
         - -9.3696768262615162e-03
         - 2.9762766622511122e-02
         - 1.5011755786764263e-02
         - 1.0574384488249875e-02
         - -3.5941998319663444e-02
         - 1.1631701116582443e-02
         - 2.8107136267575820e-02
         - 3.5560075331074616e-02
         - 2.1923252820779612e-02
         - 1.7729680475810843e-02
         - -8.8003557057655477e-03
         - -1.9480964951494255e-02
         - 1.6476909353374158e-02
         - -1.7700744721152083e-02
         - -9.9855300636885278e-03
         - -8.5560773406890070e-03
         - -1.5736444601058650e-02
         - -1.0513805952381185e-02
         - -4.6027705611414137e-03
         - -4.8585361928868871e-03
         - -6.4528447854116364e-02
         - -2.7260250470433133e-02
         - -5.1845916350296090e-02
         - 1.5953336849291240e-02
         - 5.5080757103894498e-03
         - -1.3224420756210043e-02
         - -8.3561505552240210e-03
         - -1.3895850861879559e-02
         - -3.3526838129774909e-02
         - 1.3275024978193380e-02
         - 8.5536844502625969e-03
         - 1.7192643119929917e-02
         - -1.4718764993931786e-02
         - 2.0250418798112013e-02
         - -1.0577919563715699e-02
         - 5.1605769743905796e-03
         - 1.3727745355202065e-02
         - -4.3144971694345453e-02
         - 1.7307734337117971e-02
         - 2.6108978401481117e-02
         - 8.0723582880799245e-03
         - 1.7687447977005888e-02
         - -4.9223565362481007e-03
         - -2.8725270517133507e-02
         - -1.7857905178121147e-02
         - -3.6460216938643347e-02
         - 1.7995271176097602e-02
         - -3.3462692246251140e-02
         - -2.1494052938296343e-02
         - -2.9262705022708439e-02
         - -3.9768056776430328e-03
         - 1.5697961681376674e-02
         - -9.7685830291618751e-03
         - 2.2210254808577388e-02
         - 8.0124269192437050e-03
         - 3.0037322291171141e-02
         - 9.8528942777352004e-03
         - -4.1627227535345639e-02
         - -3.0626255252251672e-02
         - -3.0297238245945324e-02
         - 6.3596135040210760e-04
         - 1.2976011265437602e-02
         - 1.8617768942644355e-02
         - 2.4513994030649169e-03
         - -1.0258785259196518e-02
         - 8.4834183996251953e-03
         - 3.0635878765582240e-03
         - 1.0912971104954261e-02
         - 5.9614258906705644e-03
         - 4.8308327467481097e-03
         - -1.1196248245578039e-02
         - -2.0318765119871452e-02
         - 9.9088853090356747e-03
         - -1.6741965953076969e-02
         - -3.5114931376661455e-03
         - -8.7892128633017940e-03
         - -1.4321482763186134e-02
         - -5.9034085714067168e-03
         - -8.4308000937230541e-03
         - -8.2246138960590800e-04
         - -3.2187314328354991e-02
         - -1.0724469216302761e-02
         - -2.0805236998537452e-02
         - 5.6651353075173631e-03
         - -1.4275502323479693e-03
         - -2.1941713763981550e-02
         - -1.8974675479012226e-02
         - -2.1128062444333268e-02
         - -1.4915367573030171e-02
         - -2.6240101887869166e-03
         - -9.1773954584294061e-04
         - 1.2630471665542707e-02
         - 2.3136002617795319e-03
         - 1.1595821163392060e-02
         - -2.6917259192280607e-03
         - 1.2542035253246552e-04
         - -5.5499028185938687e-03
         - -2.0561198091910562e-02
         - 1.5819843724634870e-02
         - 1.1921433012342011e-02
         - 1.3268510235433156e-02
         - 7.6708053771277094e-03
         - -1.2087864382276355e-03
         - -1.4433009589402543e-02
         - -1.1824503083255999e-02
         - -2.4685760106495664e-02
         - 1.1163823174297812e-02
         - -2.4132544396066252e-02
         - -4.9976262515395147e-03
         - -2.4770743858741139e-02
         - -1.3588821346732996e-02
         - 6.4371128397784604e-03
         - -1.1320401016475367e-02
         - 1.2545130740457110e-02
         - 1.0013211083359747e-02
         - 1.6881782322372335e-02
         - 9.3797970981624259e-04
         - -2.3732655277468356e-02
         - -2.2746720751690177e-02
         - -2.2854075686774104e-02
         - 6.0166631963463465e-03
         - 1.3958441067941703e-02
         - -2.7789900541965742e-03
         - 2.4370575993582534e-03
         - -6.0567875258389610e-03
         - 1.3665223025506588e-03
         - 9.1033492231912642e-03
         - 2.1892070307332392e-02
         - 1.4120284466969899e-02
         - 9.7435247239043826e-03
         - -1.2973572565788521e-02
         - -1.6722746794958342e-02
         - -2.0424910973337192e-03
         - -8.6778447310294424e-03
         - -8.5406230121887507e-03
         - -1.5417897539990205e-02
         - -3.2847655960046951e-03
         - -1.0755265269195415e-03
         - -1.0435142100448597e-02
         - -4.2803147633532447e-03
         - -2.7700723037402564e-02
         - -3.9424417170626303e-03
         - -1.3614326756058941e-02
         - -3.8478090231334741e-03
         - -3.7207917402415983e-03
         - -2.7065583798458043e-02
         - -2.5091116243841330e-03
         - -1.7262395942942120e-02
         - -3.0859834888085115e-02
         - -2.1721280633878212e-03
         - 1.6377014461676508e-02
         - 1.9958122165592423e-02
         - -1.3874240755246042e-02
         - 1.6757305362679366e-02
         - -2.5866037756517832e-02
         - 1.1825371571480160e-02
         - -3.1653206634897177e-03
         - -3.6052432824901004e-02
         - 2.5947837195052139e-03
         - 9.5134006938450751e-03
         - 9.5593014940972866e-03
         - 1.9335826682167964e-03
         - 7.5589216935558548e-03
         - -1.9494733811314221e-02
         - -4.6451698952381390e-03
         - -2.1511108872571783e-02
         - 1.5554139267775224e-02
         - -1.4417919256125886e-02
         - -2.7556078771746925e-03
         - -1.3853136184334449e-02
         - -6.5147429940019680e-03
         - 1.8565142558386850e-02
         - -2.6575127164328084e-03
         - 1.8223235339312322e-02
         - 8.7226756348343399e-04
         - 1.9920785390929945e-02
         - 1.8257965071732475e-02
         - -4.2065192853495276e-02
         - -4.1780333208113835e-02
         - -3.6924864192297034e-02
         - -1.1304936049295531e-02
         - 1.8062038763606507e-02
         - 9.1933075151399996e-03
         - 8.5649848832541845e-03
         - -2.4350656104520422e-02
         - 7.8884580993433939e-03
         - 2.9859134096118529e-03
         - 2.6248689912604976e-02
         - 2.4207140418986688e-02
         - -1.0071108015910150e-03
         - -2.4871886033881710e-03
         - -1.3052459001907615e-02
         - 1.1497916261556648e-02
         - -1.9456588598758880e-02
         - 1.1581735197822415e-03
         - -1.6250330595561337e-02
         - 7.2565837567458175e-03
         - -1.3636960957919445e-02
         - 2.6730419426257369e-04
         - -7.9341330833579207e-03
         - -3.9496095002074780e-02
         - -2.2692093417851597e-02
         - -3.2306280524309970e-02
         - 1.2489100187135420e-02
         - 2.2524302372039168e-03
         - 3.2035934932056701e-03
         - 5.5987367123028070e-03
         - 4.9618556202300898e-03
         - -1.4469039183611743e-02
         - 5.8125600517047746e-03
         - 6.9130382605093075e-03
         - 1.0502740437164048e-02
         - -2.6578147691396683e-03
         - 7.1833819484917738e-03
         - -1.1761290160533833e-02
         - -6.5612547445720593e-03
         - 9.5612747616195658e-03
         - -3.8386050675286729e-03
         - -2.0086612610663666e-03
         - 8.1915028429382000e-03
         - 6.9830805108512563e-03
         - 4.6625065282576892e-06
         - -5.3373047258047862e-03
         - -9.9526715556388853e-03
         - -1.0969342329039273e-02
         - -1.1623390301059119e-02
         - 1.3646938636887002e-02
         - -4.1238370578989608e-03
         - 1.3047135815056064e-03
         - -1.1420713426590607e-02
         - -1.1199099562925436e-02
         - -6.3070545469085734e-03
         - -3.9416919276879271e-03
         - 6.6443488613833991e-03
         - 1.0571585079606755e-02
         - -4.0047114845522605e-03
         - 4.2379294825146173e-03
         - 1.5194534102885745e-04
         - -4.8130854507838624e-03
         - -7.9868822170341448e-03
         - -6.9670835231073315e-03
         - 1.5255219290785153e-04
         - -7.5038296435112522e-03
         - -7.0106491176667373e-03
         - 1.6507563791667080e-03
         - 8.6226498799464191e-03
         - -3.2380804826508129e-03
         - 8.1690229788797166e-03
         - -8.9298099472207779e-03
         - 1.1549311115382750e-02
         - 8.1103791860875230e-03
         - 7.7032342143853268e-04
         - 2.5623160361360493e-03
         - -1.1500237315230883e-02
         - -9.1140010674013294e-03
         - 2.8579062472369843e-03
         - -4.9755823594876993e-03
         - -5.4927098930940364e-03
         - 2.2145691609656037e-03
         - -9.5746051368072599e-03
         - -1.9305260412803969e-02
         - -1.1407789652396791e-02
         - -1.1875686321127465e-02
         - -7.7990417549120769e-03
         - -6.8322188404623769e-03
         - 3.7918830510786945e-03
         - -5.3778717503754063e-04
         - -4.1904720941934931e-03
         - -1.0442760188971520e-02
         - 7.0286642942272715e-03
         - -8.0342803257899970e-03
         - -2.8712532074873088e-03
         - -3.7493780193298058e-03
         - 5.4238521359584041e-03
         - 4.6638938504885968e-03
         - 1.1273712895715203e-02
         - 1.4034662468618499e-03
         - -6.5775630632866431e-03
         - 4.8601212872214639e-03
         - -2.3625243098257696e-03
         - -4.8062776032856786e-03
         - -5.8811372300657553e-03
         - -6.5727990100991826e-03
         - -7.9871369994799976e-03
         - -6.7084382116052365e-03
         - 2.2087590385776617e-03
         - -2.8044776583232098e-03
         - -1.6119657099424770e-02
         - 2.3027070429354844e-03
         - -9.9774160673870814e-03
         - -4.7427380768099306e-03
         - -1.0217901756591334e-03
         - 5.4844186296657072e-03
         - 8.5643829524210905e-03
         - 1.6881847031400151e-03
         - 1.5769742524904710e-02
         - -4.6599370128466763e-03
         - -8.6159374062014047e-03
         - -1.3507821511615763e-02
         - -1.0611833302295984e-02
         - -1.1738964528382053e-02
         - 4.5535680329931490e-03
         - 1.0420470368482067e-02
         - -8.3868598104420641e-03
         - -1.3416082012623494e-02
         - -4.2301137626790013e-03
         - -1.9488773499892142e-03
         - 1.1533229583180760e-02
         - -4.8963999932101886e-03
         - -8.0032861135426164e-03
         - -1.2438560579338757e-02
         - -6.7720101136676250e-03
         - 6.0196445622636404e-03
         - 7.7481534487930884e-03
         - -9.4438132118725895e-03
         - -7.7190314551868625e-03
         - -8.4617972236474652e-03
         - -4.9037756912752729e-04
         - 6.1045586650833256e-03
         - -1.1494510619526090e-03
         - -1.9653339741957015e-02
         - 7.5460523419250414e-03
         - -2.2051167301125802e-03
         - 4.1855497154305570e-03
         - -1.7566960217064308e-03
         - -9.0709671714912544e-03
         - -1.7512189816169321e-02
         - -2.6710745222326913e-04
         - -2.5386947028369140e-02
         - 2.0469107588039514e-03
         - 1.4691672546940567e-02
         - 1.6382196447690962e-03
         - 6.6874800338813179e-03
         - 7.9553546249867373e-03
         - -9.9979618827057623e-03
         - 2.1340768670846627e-03
         - -2.9672457891382412e-03
         - -2.4882319511771826e-02
         - 3.3198568134487350e-03
         - 1.9406554974458784e-02
         - 2.6792615829410941e-04
         - 6.5938589628226222e-03
         - -4.2739244153354042e-03
         - 8.0383857165914358e-05
         - -6.2247605890023193e-03
         - -1.7840571543946544e-02
         - 1.1516847606768016e-02
         - -3.1709132817671218e-03
         - -6.4880964626529885e-03
         - -6.7865390165675341e-03
         - 1.3591151181939118e-04
         - 2.2160321778259218e-02
         - -1.0360619352289902e-02
         - 1.4315437629983664e-02
         - -5.2197326440931021e-03
         - 1.9324950122859751e-02
         - -4.0885058012202500e-03
         - -2.7823961290110218e-02
         - -1.3364062500981811e-02
         - -8.1866242175653928e-03
         - -8.7497022401737401e-03
         - -3.4067034247792696e-03
         - 5.6594987103463952e-03
         - -2.2738625379455477e-03
         - -1.6820712029813931e-02
         - 5.7378211566572893e-03
         - 2.6038908673141092e-03
         - 1.7246754001258330e-02
         - 7.6320867718210677e-03
         - 2.8258321057307700e-03
         - -1.1787797366774421e-02
         - -5.9000783614310912e-03
         - -5.1471860541609637e-03
         - -1.6744585593192716e-02
         - -6.1478797633189005e-03
         - 6.5885163485427641e-03
         - -1.1235454172675482e-02
         - -1.6725600760479273e-02
         - -8.5177275492773780e-03
         - 8.4894973446031381e-03
         - -3.1151122131762351e-02
         - 1.7861491336150894e-03
         - -7.1964537083893587e-03
         - -8.1061822871352374e-03
         - -9.9912135766437767e-04
         - -2.0404001768014757e-02
         - -1.8683412512026636e-02
         - -8.5180284081616316e-03
         - -1.8591062582352099e-02
         - 3.5481649942375381e-03
         - 1.1469120827101631e-02
         - -3.9060142850582567e-03
         - -8.9011152066835481e-03
         - -2.7234548341049025e-03
         - -8.7190204843821031e-03
         - -1.5337653012738239e-03
         - 5.6305257275371336e-04
         - -3.6068824364904849e-02
         - 7.8791441018920549e-03
         - 1.8299290391206958e-02
         - 1.2855810479860310e-02
         - 1.5358460972428416e-02
         - 8.3117223491250669e-04
         - -1.1380435674257264e-02
         - -3.2227433808051627e-03
         - -1.5655199870011963e-02
         - 5.1947185992598710e-03
         - -1.8374595549984718e-02
         - -1.0791461701122189e-02
         - -1.5460016170895791e-02
         - -3.7530290497959497e-03
         - 8.5777758984906666e-03
         - -1.0710452942044917e-02
         - 2.3384152607895056e-02
         - 1.3460681487793178e-02
         - 1.1172968384263821e-02
         - 3.5921926091388918e-03
         - -1.6350974848946678e-02
         - -2.5160333006697597e-02
         - -2.8125817750318860e-02
         - 8.1413314623029892e-03
         - 3.8991230999371245e-03
         - 6.8259488397993985e-03
         - 6.3454918709030242e-03
         - -9.1466198036457315e-03
         - 1.2827899708682975e-02
         - 1.3392846027859770e-02
         - 5.3588639839215156e-03
         - 8.2517201674523269e-03
         - -4.7485315173679014e-03
         - 2.4501248883770216e-04
         - -5.9479751924605461e-03
         - 1.1924139267116590e-02
         - -8.6869484212419856e-03
         - 4.7274089517801510e-03
         - -3.2131470143030604e-03
         - 8.6146065620193429e-03
         - -1.6881774615444271e-02
         - -1.6175656308224126e-03
         - 9.3319583012320764e-04
         - -3.6094240408355384e-02
         - -3.6609165747947744e-03
         - -2.0794344905601454e-02
         - -2.6654490398959462e-03
         - 6.7232060568325602e-03
         - -1.6955648746129426e-02
         - 4.9913602582795898e-03
         - -1.2263511274973162e-02
         - -1.6942272411767260e-02
         - 1.1998520978330691e-02
         - 1.2920024875406888e-02
         - 1.0571298941417643e-02
         - 1.5798055150290343e-03
         - -5.5189652071663004e-03
         - 5.2439602293703866e-04
         - -5.1467793997563458e-03
         - 8.4533209664966675e-04
         - -2.4894763196622493e-02
         - 9.3090365553622871e-03
         - 1.7802211252119619e-02
         - 9.1201717781929890e-03
         - 7.2399671082621830e-03
         - 2.6837978371509036e-03
         - -1.5120083113234225e-02
         - 2.2076117122053793e-03
         - -1.4293633580819325e-02
         - 5.2337389102198057e-03
         - -1.2815470584675599e-02
         - -5.9098413388051878e-03
         - -1.9263557904489748e-02
         - 1.7002471647669336e-03
         - 1.6798563011461168e-02
         - 9.5221301914929222e-04
         - 3.4771088048629628e-03
         - 7.7696004958174381e-03
         - 1.5439521085051673e-02
         - 1.6402112425658984e-02
         - -1.2542482928751417e-02
         - -1.0927931448739653e-02
         - -3.1092977571341770e-02
         - -4.6820749745720789e-03
         - 5.5762364907497993e-03
         - 2.2940549235136352e-03
         - -6.9428306306614559e-03
         - -1.3505749173716180e-02
         - 5.0743902242790127e-03
         - 2.6394615275606159e-03
         - 4.9033072609742066e-03
         - 5.4322219425823829e-03
         - -6.4607161565646120e-03
         - -3.7319505157271645e-03
         - -1.5775769680512114e-02
         - 1.0161250835699324e-02
         - -4.2779683847577153e-03
         - 4.7543181014481317e-04
         - -6.7681009533392192e-03
         - -3.4051020313343697e-03
         - -1.7932242408913474e-02
         - 5.4873808229316872e-03
         - -3.0251319783727994e-03
         - -2.8619793413875220e-02
         - -1.3182398078669139e-02
         - -1.1534494400743604e-02
         - -2.6426158626724375e-03
         - 1.2141753409542952e-02
         - -1.7898431801775690e-02
         - -2.9855376136054441e-03
         - -1.3499591696918696e-02
         - -1.1213029106851178e-02
         - -3.6428320499062219e-03
         - 3.6376311355676089e-03
         - 1.5649388653584784e-02
         - -1.3810098902904345e-02
         - 3.6068919145272691e-03
         - -1.5951354439596836e-02
         - 2.3811183207471556e-03
         - -7.4343607818061971e-03
         - -3.7928756976556080e-02
         - 1.0179546414876081e-02
         - 1.9260501657504720e-02
         - -4.5824698891675040e-03
         - -2.3177988025352139e-03
         - 3.4048617943319452e-03
         - -8.4182859638813005e-03
         - -5.3269798440061114e-03
         - -2.7043567393321585e-02
         - 9.1492261828691208e-03
         - -6.1788946536945992e-03
         - -1.9568788725189967e-02
         - -2.0475605904500798e-02
         - -7.3453478770753762e-03
         - 6.5702348411224628e-03
         - -1.2699538959561994e-02
         - 1.9365871614710959e-02
         - 5.8895817659452765e-03
         - 1.7745185379728447e-02
         - 1.2422639492303876e-02
         - -2.7639409488675864e-02
         - -2.1475648650128708e-02
         - -2.3133290112061854e-02
         - -6.8796053370052644e-03
         - 1.4898339145552523e-02
         - 1.2336063987662791e-02
         - -3.7034654873102594e-03
         - -5.4008060804422208e-03
         - -7.2575325872055452e-03
         - 1.6442202837211621e-03
         - 1.5819772473946829e-02
         - 2.7600987492666959e-03
         - -5.9805367048972238e-03
         - -1.2004954786052886e-02
         - -1.5661822953254998e-02
         - 1.1834988518954157e-02
         - 9.3112291135437266e-04
         - 7.1713880412872582e-03
         - 3.4286667410944886e-03
         - 2.5500845347463082e-03
         - -1.2392855672799116e-02
         - 6.0848495659392432e-03
         - -3.5745740520170505e-03
         - -2.5091725433816953e-02
         - -6.9592495475264728e-03
         - -2.5783662791913228e-02
         - -9.5804797943818546e-04
         - 2.9270096393963188e-03
         - -1.0439036770074768e-02
         - -1.0869796296236682e-03
         - -3.9519086441739204e-03
         - -1.2788242822552542e-02
         - 1.2557190167323550e-02
         - -4.3192333718759090e-03
         - 4.8764049255481398e-03
         - -6.4722127302798338e-03
         - 1.0609177292679940e-02
         - -4.1275168378040739e-03
         - 6.7172139990282053e-03
         - -9.2357448151833606e-03
         - -1.0988153498042582e-02
         - -4.7025530522260299e-03
         - 1.4626900630727156e-02
         - 7.9786402759255822e-05
         - -3.4138220490860550e-03
         - -8.9060865087874155e-03
         - -9.4818295396812725e-04
         - 8.0633956653929622e-03
         - -6.9964624636821276e-03
         - -6.5498606370737230e-03
         - -1.5554312828064989e-02
         - -1.3099534603604461e-02
         - -4.9064144727031861e-03
         - -1.0049473737647995e-02
         - -5.9796702878032763e-03
         - -7.3885086220246464e-03
         - 5.7962962885615222e-03
         - -2.5578603142777812e-03
         - 5.8929805896239000e-03
         - 1.1759267236878833e-02
         - -9.4073701581726434e-03
         - -1.5767689447200032e-02
         - -1.1073369944449952e-02
         - -1.1103239185348506e-02
         - -5.9858298305154184e-03
         - -8.0421997129688644e-03
         - -5.1069846697499614e-03
         - -3.5628043230689524e-03
         - 7.9296448952273259e-03
         - -1.0165947937739717e-02
         - 9.2843048026375607e-03
         - 1.8935392850448385e-03
         - 8.1428322427577748e-03
         - -8.9965453474944168e-03
         - 1.6578483379941214e-03
         - -6.2291290083386838e-03
         - -1.3890631787941755e-03
         - -1.0440455087778539e-02
         - -6.0420341396657052e-03
         - -9.3416321477299939e-03
         - -6.9033589812198036e-04
         - 5.5428997186280698e-03
         - -1.8298197311575933e-03
         - -9.8132593002988669e-03
         - -1.0121070271884665e-03
         - -1.2192734107833673e-02
         - -4.3023493638153039e-03
         - -7.1113661532980522e-03
         - -1.2038183037333811e-03
         - 8.5819604711978078e-03
         - -7.0013701607802674e-03
         - -9.3712646184259292e-03
         - 3.3791617971560012e-03
         - 1.0758483785298440e-02
         - -9.6971900955435345e-03
         - -3.7061194792724888e-03
         - 5.2567052281790221e-03
         - -5.3428073735368410e-03
         - 9.7276278427423889e-03
         - -1.0305484638667369e-02
         - -5.8781865920233285e-04
         - -6.0766025082402411e-03
         - -3.1003999533553927e-03
         - 8.7169565426820986e-03
         - -8.7609244671417608e-03
         - -4.5569299787470707e-03
         - 1.6382212112749043e-02
         - -3.4973459778157461e-03
         - -3.3018221367681830e-03
         - 4.1549511433998220e-03
         - 6.8928905333615802e-03
         - -1.1014742191916381e-02
         - 7.4390394405209424e-03
         - 7.5566513484052293e-03
         - -7.8999476420519663e-03
         - 7.2273294460764694e-03
         - 4.9731108310668857e-03
         - 7.7457201760671116e-03
         - -9.9618766888745422e-03
         - 9.4317276455355961e-05
         - -3.9027259173017798e-03
         - 1.3324293500264295e-03
         - -4.3337538448765820e-03
         - -1.8387582759037365e-03
         - -4.9506760047830735e-03
         - -5.3860639075700104e-03
         - -9.1673806657066540e-03
         - -1.7479613279087732e-03
         - 1.0998566346267634e-02
         - -9.7356148935473985e-04
         - 6.9658247489573786e-03
         - -7.9374828682203438e-03
         - -1.3492693864980594e-02
         - 5.8110403799552200e-03
         - 9.9212943337709854e-04
         - 6.4184677274587657e-03
         - -6.1164189233815962e-03
         - -5.3024606779213668e-03
         - 6.2911725492391232e-03
         - -6.8113653268718054e-03
         - -2.8525018772636800e-03
         - 6.4587086921921973e-03
         - -5.2756034689077341e-03
         - -2.4758953457790179e-03
         - -4.7199073522069075e-03
         - 7.4488244005888812e-03
         - 1.0986289059634738e-02
         - -6.6540619232900115e-03
         - 2.3114081639972178e-02
         - 2.0258303234393850e-02
         - 1.0301181288287999e-02
         - 2.6692745390779291e-02
         - 2.1215162410242495e-03
         - -1.1466469919102780e-02
         - -6.8210652018890969e-03
         - 1.4670831567185419e-02
         - -5.5190741665883261e-03
         - 1.8811835031732282e-02
         - -7.7687282590207197e-03
         - -1.6132472488146213e-02
         - 4.8734509486665779e-02
         - -2.4472968081974025e-03
         - -9.6101232454382131e-03
         - -1.8801397244998509e-02
         - -1.0760239702220937e-02
         - -5.5191271589028080e-03
         - 2.3234361275444163e-02
         - 1.0457811828986096e-02
         - 2.8305728383982640e-02
         - -1.1784577744815001e-02
         - 2.2451637006424194e-02
         - 2.4713748470251654e-03
         - 2.6585237992307647e-02
         - 5.9961536912679601e-03
         - -1.2712925234774013e-02
         - 1.4940056803271574e-02
         - -2.9349599816324158e-02
         - -2.3303023433597606e-03
         - -1.9232373009900865e-02
         - -3.4691773983979669e-03
         - 3.3846836572911536e-02
         - 2.4031032235350514e-02
         - 2.0227104938175235e-02
         - -9.9086666774874706e-03
         - -1.1466003158301654e-02
         - -1.3394436915761712e-02
         - -1.0825776271741912e-02
         - 9.0042465947549454e-03
         - 8.6477877154753028e-03
         - -1.5619569913560371e-02
         - -2.3923382534847850e-02
         - -2.4536983671194054e-02
         - -1.0968308202897244e-03
         - 1.9958504424259097e-03
         - 1.0169403936806709e-02
         - -9.2452788493688279e-03
         - 7.7014363291341772e-03
         - 9.6236985558170035e-03
         - 8.2696457304119089e-03
         - 2.3629276222666483e-03
         - 1.6587246180674593e-02
         - 5.1363813767728514e-03
         - -1.0811689068075753e-02
         - 4.2597313429300974e-02
         - 1.0000160647556565e-02
         - 2.6904476905844930e-02
         - 5.9048354349185385e-03
         - -1.6149652537976698e-02
         - -1.7947098276586027e-03
         - 8.3964828893385267e-03
         - 3.9732387785750833e-03
         - 3.9758078376674255e-03
         - -3.1535203965273209e-03
         - 5.0169207171232352e-03
         - 9.6273447971455591e-03
         - -3.9729404596898395e-03
         - -1.1925595915695513e-02
         - 8.8047270281871644e-03
         - 1.0652646880170051e-02
         - -1.1995126245843349e-02
         - 1.5960710039396194e-03
         - -7.6202796829901087e-03
         - -6.7085197822301171e-03
         - -7.3228192936103048e-03
         - -7.5713911957065606e-03
         - 4.9126897163040010e-03
         - 7.6721962776978604e-03
         - -1.0268234431274328e-02
         - 1.1075401355219788e-03
         - -2.1073403065222742e-03
         - 1.0647053051609054e-03
         - -6.3271082988093415e-03
         - -2.2672528393643627e-03
         - -6.5231573455769099e-03
         - 1.1854740820037499e-02
         - -4.4680676658998717e-03
         - -9.4964700628608241e-03
         - 3.7692834048776618e-03
         - 1.0122337435883729e-03
         - 4.3577650806345108e-03
         - 6.2480054655118097e-03
         - -1.1886298484852800e-02
         - 9.0010403507038532e-03
         - -5.1072392164865990e-03
         - -9.8367683095005598e-03
         - -9.2333938364970482e-03
         - -6.3099662129224212e-03
         - -3.9321638475828154e-03
         - 6.4618894104158595e-03
         - -4.8876139909241924e-03
         - 3.1370579908719240e-03
         - -2.2540396498337456e-03
         - -7.6077698129096254e-03
         - 1.0514813083753996e-02
         - -3.6548812188755414e-03
         - -8.8669207886593639e-03
         - 4.7596584012985950e-03
         - -1.2231859621900369e-02
         - -7.9531989596190993e-03
         - 6.6310865000091188e-03
         - 1.1817456384420140e-02
         - 1.0529854562764488e-02
         - 5.4402395660706690e-03
         - 7.5655041712473130e-03
         - -9.0453789163392855e-03
         - 1.1951039616433380e-02
         - 8.3305688342176899e-04
         - 1.2045830250181114e-02
         - 2.2785137618159933e-03
         - 7.5853360306646451e-03
         - 2.1343507529134119e-03
         - 8.9779198466995846e-03
         - -5.0206957787749000e-03
         - 2.9652004139153532e-03
         - 8.4625691188085716e-04
         - -1.1008800404536357e-03
         - -9.4156708645895659e-03
         - -1.0488593192261492e-02
         - 4.3697428392081876e-03
         - -6.9284129443292885e-03
         - -2.4190883202712963e-03
         - -7.1157062550729448e-03
         - 2.4511001203737048e-03
         - -4.2237523043662725e-03
         - -9.7725310535965552e-03
         - -4.1497158041256680e-03
         - 1.5695928828242948e-02
         - 1.3350645713943263e-03
         - 1.2155361183381527e-02
         - -1.4150323400443442e-02
         - 3.3144522158927176e-03
         - 6.8776928476747205e-04
         - 1.7868397169623388e-03
         - 5.1988164174855802e-03
         - 3.9438365033545907e-03
         - -6.8683429233329573e-03
         - -2.0296195542425484e-03
         - 9.5327327876850079e-03
         - -7.1933302430374135e-03
         - 8.9255773562819576e-03
         - 1.5008691727124254e-02
         - 8.0353362827284211e-03
         - -5.9206634065964514e-03
         - 3.8947807989840148e-03
         - 4.3374602323004718e-03
         - -4.5004143541399130e-03
         - -1.1615034135052320e-02
         - 1.2292743933897786e-02
         - -5.4419808689613568e-03
         - -9.0543167232134594e-03
         - -1.2850887003745049e-02
         - -3.8242368690092086e-04
         - 7.2932417964499284e-03
         - 6.2494352896141801e-03
         - -3.6029978698080027e-03
         - 6.3377401046491640e-03
         - 1.3476023414802213e-03
         - -2.6186515527354716e-03
         - -7.9166484490195161e-03
         - 1.0842011661455014e-02
         - 8.4413312343740634e-03
         - 7.2235232748657215e-04
         - 4.5479930281152577e-03
         - 6.9588517002221071e-03
         - 9.8419957498203699e-03
         - 3.0654093657745997e-03
         - -8.6072330147733559e-04
         - 1.6583970189367810e-03
         - 7.0710913347298348e-03
         - -5.5668234365817103e-03
         - 4.5472987486671499e-03
         - 2.3620014734517802e-03
         - 2.5070726296101470e-03
         - 1.1848749703231196e-02
         - 1.0314031829543800e-02
         - 3.0277145115839765e-03
         - -3.7855260228183661e-03
         - -1.0850124755606360e-02
         - -2.2442175303565283e-04
         - 6.3844936675024585e-03
         - 9.8485222713183508e-04
         - 1.0917724076444658e-02
         - 6.4702916087562169e-03
         - -6.4328288859958130e-03
         - 1.1070496969102787e-02
         - 1.0040680461752407e-02
         - 3.3376406951304330e-03
         - -1.1186002980521338e-02
         - -1.2495565014828625e-02
         - 1.0193084256742415e-02
         - 1.1726134234809020e-02
         - 3.5239664262916117e-03
         - -1.7734836321358506e-03
         - -7.9608595611994882e-04
         - 3.2941351072608791e-03
         - -1.7640708239563649e-03
         - 1.3439980517169745e-02
         - 1.2082650417817505e-02
         - -2.3864277217085616e-04
         - 4.2101504313288461e-03
         - -2.1318052967956502e-03
         - -3.7663401106286789e-03
         - -1.4750804511479802e-02
         - 1.0466609343142873e-02
         - 6.0794035975766034e-03
         - 9.8499899555662962e-03
         - -3.8866671672594657e-03
         - -1.5538272538144120e-03
         - -5.9336181304248383e-03
         - -6.1857117170626271e-03
         - 1.9746859179050717e-03
         - 2.8577346224625735e-03
         - 1.0906842853225199e-03
         - 1.1736759323852076e-04
         - -4.7122480475680203e-03
         - -7.6702343389847567e-03
         - -5.4351200671208782e-03
         - -3.0939041763283922e-03
         - 8.3052945203665341e-03
         - -3.0171896109675279e-03
         - -4.5990830480288503e-03
         - 4.0686217734670956e-03
         - 2.3796754768373330e-03
         - -7.5583475763133833e-03
         - 6.6625871204451107e-03
         - -4.4237741275021236e-03
         - 7.7108221295676639e-03
         - 1.0252416065203138e-02
         - -4.7934803804896217e-03
         - 5.8091533309038070e-03
         - -1.2902896553117322e-02
         - 1.0509862971375029e-02
         - 7.9928679984396026e-03
         - 2.4006089112943358e-03
         - -4.2100595819639947e-03
         - -7.8904152024286654e-03
         - 2.1229994221008239e-03
         - 6.8889544603183660e-03
         - 8.2768441648339835e-03
         - -1.0480008472756536e-02
         - 9.3387039778155753e-03
         - -6.2171202563609564e-03
         - 8.8416381597833556e-03
         - -8.4604271816096401e-03
         - -2.0272532607863163e-03
         - -3.8361377801228629e-03
         - 5.2929181307201523e-03
         - 5.1802204934631377e-03
         - -1.1818580108829193e-02
         - 3.0804109425700129e-03
         - 1.0671003763468771e-02
         - 2.3267162196443669e-03
         - 5.6379030616011102e-03
         - -6.1151251498036468e-03
         - -2.7329975326332635e-03
         - 2.8247713041574386e-03
         - -7.5173236073543580e-03
         - 1.7079781540467022e-03
         - 9.8187115663864889e-03
         - -5.4506498459253481e-03
         - -9.0799597031620913e-03
         - -8.4353565228199798e-03
         - -7.9485989593957966e-03
         - -3.5470429639976888e-03
         - 8.7736752909637547e-03
         - -7.6796313872285376e-03
         - -8.5732061649165178e-03
         - 8.3592076666973919e-06
         - 8.1022803542041104e-03
         - 1.0794686003546460e-02
         - -5.1441735119043498e-03
         - 8.0376186493135559e-03
         - -9.7281970866233292e-03
         - -1.7774602647214702e-03
         - -8.4726953835677129e-03
         - -9.9100682552170829e-04
         - 3.6382608728291305e-03
         - -7.7915588939823557e-03
         - -5.1026405078483088e-03
         - 8.4890957050656433e-03
         - 1.2353608326760654e-02
         - -4.6691504930667788e-03
         - 1.9686431834156442e-03
         - 2.5911033727997849e-03
         - -3.0613340829266887e-03
         - 1.1817259195614693e-02
         - -1.1488024874605264e-03
         - 3.6538138870094647e-03
         - -3.2686850805630115e-03
         - -2.8507593219791487e-03
         - -1.3789709279978227e-02
         - 7.6847542954236051e-03
         - -3.7557456693009142e-03
         - 6.5096528122412841e-03
         - -1.0416695026888554e-02
         - -1.1363266854489193e-02
         - 1.5975254388342127e-03
         - 6.8924143496582361e-04
         - -5.5749211527712150e-03
         - -7.4126931092653543e-03
         - -4.1200395513365769e-03
         - 7.5256800947371303e-03
         - 1.9439775608611723e-03
         - 5.8039375908727174e-03
         - 1.8347574257554435e-03
         - -2.6644513147651948e-03
         - -1.5209180779889267e-03
         - 6.1095292408206983e-03
         - -1.4226859370734982e-02
         - -3.9272111653499385e-03
         - -2.2608590814257906e-03
         - 3.6454708568896856e-03
         - -9.4080107492299607e-03
         - -1.8359198638104825e-04
         - 7.3373898918377978e-03
         - -5.4270738411134735e-04
         - 8.5017053228830537e-03
         - -1.8129595640176406e-03
         - -4.8142285349532131e-03
         - -4.6892216598049992e-03
         - -5.9307081683897126e-03
         - 1.6785664342589396e-03
         - -1.1359779559916020e-02
         - -4.1030384520658967e-03
         - 3.4972384046524810e-05
         - 7.4651962034357217e-03
         - 1.8326884025995441e-04
         - -4.6915304530956055e-03
         - -5.4877300987344439e-03
         - 5.8385719492385166e-03
         - -7.4415521585440309e-03
         - 2.6229322156166909e-03
         - 4.7205697063316347e-03
         - -7.1349545534510877e-03
         - 3.2023673171522635e-03
         - -1.6825938668351796e-03
         - -5.2732434543802621e-03
         - 2.1931322563498545e-03
         - -9.1808212223237363e-03
         - 1.1464940933029450e-02
         - 3.0331220038254921e-03
         - 1.6211901659177377e-03
         - 3.5519073478456472e-03
         - 5.0102170094742764e-03
         - -7.0792055229014807e-03
         - 2.3869131753471409e-03
         - 2.4919224852178660e-03
         - 4.3750019024516211e-03
         - -9.9693551648779005e-03
         - -1.3076647926554773e-03
         - -8.4202258733900425e-03
         - 7.0972449660071874e-03
         - 6.9360099437344135e-03
         - 1.4304282266981464e-03
         - -3.0915070265477309e-03
         - -1.5775480310018086e-02
         - 2.5036456534767216e-03
         - -6.1726872689820316e-03
         - 6.9809496441070292e-03
         - 7.3270548907764773e-03
         - -3.5835999173417898e-04
         - -6.2093967762519749e-03
         - -2.8234529671365516e-03
         - -9.0217523263808486e-03
         - 7.0022230959394726e-03
         - 2.7742215440757596e-03
         - 4.6926808905051673e-03
         - -1.3053872169424562e-02
         - -1.3106129428415185e-02
         - 9.7016564919854449e-03
         - -3.6050078522549787e-03
         - -9.4112782468413637e-03
         - 3.7606079921763962e-03
         - 2.3086140960625950e-03
         - 1.1794141834571486e-02
         - -2.3717638166083966e-03
         - 1.5943589753587652e-02
         - 9.4441278577893743e-03
         - 9.9308595920374150e-04
         - 8.3375619761184080e-04
         - -4.1549830136475060e-03
         - -1.1126364443136793e-02
         - -1.7138291353097662e-02
         - 9.5845331296230910e-03
         - -4.2430291681322735e-03
         - -5.3309194505068069e-04
         - 8.0902660566203304e-03
         - -7.5993231347876895e-03
         - 7.0693775842162769e-03
         - 1.8444732790254769e-03
         - 4.2651651948682782e-03
         - 2.2330655226220483e-03
         - 1.2837341094993720e-02
         - -7.1157856204739382e-03
         - -4.5540945620513714e-03
         - -9.2125368746929492e-05
         - 2.5976078532144961e-03
         - -1.2885060315418959e-02
         - 1.9857721480954220e-03
         - 3.7478159696180246e-03
         - 9.6414088506194175e-03
         - 1.2315797518282156e-03
         - -6.7928863432432061e-03
         - -3.8344428294020986e-03
         - -7.0401056947592402e-03
         - 5.4418483627371650e-03
         - 4.7493734059957634e-03
         - 1.3415279551788702e-02
         - 6.7556029145498320e-03
         - -1.0568064884467012e-02
         - 9.2573565220779451e-04
         - -3.9615582285103734e-03
         - 5.6381537416631024e-03
         - 1.5379472395088812e-02
         - 1.5645654147887256e-04
         - -1.3851632273752573e-03
         - -1.0388722781656057e-02
         - -5.6150826587622596e-03
         - 9.2695228086442857e-03
         - 7.8562459505970642e-03
         - 4.3335426212944570e-03
         - -3.5147478378516666e-04
         - -6.1699836100922991e-03
         - 5.4963426335041653e-03
         - 1.2225361102655638e-02
         - -3.2615232320790462e-03
         - -3.8185366872665631e-03
         - 1.5958497195615482e-03
         - -7.8144053242826476e-03
         - 1.1397928588270181e-02
         - 6.3913821920095013e-03
         - 6.5404337977685639e-03
         - -2.9953355853866736e-03
         - 7.9183755724729927e-03
         - 7.5303447364346036e-04
         - 7.7124695674100664e-03
         - 1.5651572228449668e-03
         - -2.7945144147770678e-03
         - 1.0728266362811862e-02
         - 3.3080926840651725e-03
         - 4.7362178649131212e-03
         - 5.7273149123816629e-04
         - 3.8204602669974596e-03
         - -3.1524093713534741e-03
         - -2.0998309520014660e-03
         - 1.2149661687513410e-02
         - -8.4439065874527663e-04
         - 5.1185849071845742e-04
         - 2.8720198190646013e-03
         - -2.4375060114918381e-04
         - -3.4663449428221338e-03
         - -7.6396429524802417e-03
         - 7.7318980339786767e-03
         - 4.4516590686520844e-04
         - -1.2663444725905604e-02
         - 1.1585751542060076e-02
         - 4.4516780952399502e-03
         - 5.8096356120735321e-03
         - 6.4889828874595649e-03
         - -2.4726897421248994e-03
         - 3.8117629204509926e-03
         - 1.3005138693396342e-03
         - 1.4743653505132299e-02
         - 6.0848714797779608e-03
         - -1.1489664614352224e-02
         - -9.4331373593617603e-03
         - -6.2175448277333048e-03
         - 1.5443755852943233e-02
         - -9.5865096781043383e-03
         - -4.7667700185384269e-03
         - -6.5185155822811616e-03
         - -7.5695079191946089e-03
         - -1.2447321085373043e-02
         - 9.2652291103389253e-03
         - 4.7827879093837958e-03
         - -6.6214349892394298e-03
         - -1.2570403263709601e-03
         - -1.5948061113348025e-03
         - -7.8345775400354839e-03
         - -8.8176531382366536e-04
         - 7.1093199684771798e-03
         - 9.2585415536809696e-05
         - 5.9923454178498680e-03
         - -4.9048458324483235e-03
         - -7.0113307452620705e-03
         - -6.0676918666869948e-03
         - -8.8098117237634874e-03
         - -9.8936692701690771e-03
         - -5.0246127742415237e-03
         - -8.6258074278664845e-03
         - 9.4813312992054616e-03
         - 8.7033627322550960e-03
         - -5.2524398865280934e-03
         - -1.0616243432347851e-02
         - 7.1684409591695275e-03
         - -1.0053234926891585e-02
         - 1.4343139438434054e-02
         - 1.0573632563888144e-02
         - 7.4577390142816979e-03
         - 3.5034803624823222e-03
         - 3.1799745950177442e-03
         - 1.5875933456967592e-03
         - 1.0034225518849482e-03
         - 3.7691488356115877e-03
         - 2.6820870891351408e-03
         - -2.3219501432925303e-03
         - -9.8434309412733338e-03
         - 4.4312115979298931e-03
         - 6.9232070454212924e-03
         - 6.8405295848591903e-03
         - -4.5559047374082052e-03
         - 2.6237486097641267e-03
         - 8.1515869256478437e-03
         - -6.5759798260587128e-03
         - -8.1099516721118842e-03
         - 1.3490528041059159e-02
         - 7.4980699573375916e-03
         - -1.0741494438939628e-02
         - 6.9882590319173639e-03
         - 7.8718087184886237e-03
         - 4.3356245004780303e-03
         - -6.7411072644520511e-03
         - 5.1513500184946310e-03
         - -4.7201548507618211e-03
         - -3.4013335138466582e-03
         - -7.7625145114504756e-03
         - -3.7935712742576504e-03
         - 1.0453320990257038e-02
         - -9.0730237457557743e-03
         - -8.4949830322991176e-03
         - -6.7741420343470611e-03
         - 5.7679516987720241e-03
         - -2.7336768532493692e-03
         - -3.0409053633970681e-03
         - 4.2199803548821366e-03
         - -8.1252669067825040e-03
         - -1.0002861897080301e-03
         - -1.3687184491559305e-02
         - -5.3526594249237967e-03
         - 1.7422701366961429e-03
         - -1.8076883397535658e-03
         - -8.9922365354299771e-03
         - -5.4749646893637724e-03
         - -8.6077037573878152e-03
         - -8.4399195460385761e-03
         - 1.2371906023098296e-03
         - -5.9644719869254492e-03
         - 2.4474208868759772e-03
         - -4.2851076469913266e-03
         - 5.6131644889935708e-03
         - 1.1290828896345544e-02
         - 1.0132057051279784e-02
         - -1.1431210675103982e-02
         - 6.7081864836728497e-03
         - 1.2834015675788296e-02
         - 2.7076826466238199e-03
         - -4.0080043218098261e-03
         - -7.4212368091085019e-04
         - -2.6089888993969944e-03
         - -2.3778356881352606e-03
         - -1.1906857095399572e-02
         - -1.6036413029665020e-02
         - -1.3887575183083869e-03
         - 7.4314003232752853e-03
         - -8.4794836387663709e-03
         - 1.2748446293110113e-02
         - -7.3054752734229662e-03
         - -8.3102487611190598e-04
         - -9.9620922177895092e-03
         - 2.1225452459102080e-03
         - 1.2423051609368656e-03
         - 2.0482515266320479e-03
         - -8.9110214726084384e-03
         - -6.5520180664839522e-04
         - -6.8541911654364423e-03
         - 1.2783825072577477e-02
         - -1.1788464326284664e-03
         - -8.9984475335135369e-03
         - 7.2631563712861032e-03
         - -4.5202912572363061e-03
         - -7.7837429198014760e-03
         - -6.8126242297954888e-03
         - 7.6418176835284721e-03
         - 7.2851509224620189e-03
         - -1.4076513258160743e-02
         - 1.0192495622389820e-02
         - 8.2032966949502073e-03
         - 4.4569737533543419e-03
         - -1.0270438514586233e-02
         - -2.0827787651650342e-03
         - -1.2743792815830062e-03
         - -5.3601929542529143e-03
         - 3.0595551336209258e-03
         - -1.4410181018225429e-03
         - 7.8877815997950209e-03
         - -1.1609082380197562e-02
         - -6.7409894881566735e-05
         - -1.4798089967189010e-03
         - 3.6447079360017389e-03
         - -8.7812710669082899e-03
         - -1.0072004826773897e-02
         - -2.3984643377439273e-03
         - -5.6697950822537108e-03
         - -2.6765324797065418e-04
         - -2.4692281219788354e-03
         - 3.9249718765992491e-03
         - -1.2261658517111302e-03
         - -3.6302897027105595e-03
         - 3.5800019615870346e-03
         - 9.8741668901734803e-03
         - -1.0669913885178855e-02
         - 7.7731223887594013e-04
         - -5.7330404710550942e-03
         - -4.7469057880497930e-03
         - 8.4068327891241978e-03
         - 4.7320969106226258e-03
         - -5.3040353659762878e-03
         - -4.9697044339549121e-03
         - 1.2752536753413993e-02
         - 5.1421293067411694e-03
         - 4.5938365240546968e-03
         - -1.3538921996231728e-02
         - 2.8544998063434416e-03
         - 2.8185485970351996e-03
         - 1.0600397190786032e-02
         - 1.1650290889612471e-02
         - -2.1444986850812108e-03
         - 5.6612553004066341e-03
         - -8.6699956228776659e-03
         - -3.5851753728133591e-03
         - -9.8289377358006282e-03
         - 8.4705524865970449e-03
         - -3.9499805871868595e-03
         - -5.2776869621474262e-03
         - -9.1756451386400990e-03
         - 1.3430008018430677e-02
         - -2.1117735643569175e-03
         - 5.9968650502486502e-04
         - 8.5120034858405884e-04
         - -5.7138291011518596e-03
         - -5.8483912791040503e-03
         - 6.1258609432579443e-03
         - -4.4092908190966167e-03
         - 8.5246836420182492e-03
         - -7.9353071251329951e-03
         - 2.9085565401811438e-03
         - -5.9175835933900234e-03
         - 3.4693025390725839e-03
         - 8.6711386876811448e-03
         - -5.4241266959863526e-04
         - 3.7122715962601693e-03
         - 9.3150871049065432e-03
         - 8.7757598417847107e-03
         - -4.3349133847307708e-03
         - -1.0727849985923920e-02
         - -1.5558293281846804e-02
         - -9.4357119552392898e-03
         - -6.4880800884056017e-03
         - 2.8074367939763048e-03
         - -2.2098555211256914e-03
         - -4.5854234139297324e-03
         - -4.3579166227619443e-03
         - -4.9074423649019859e-03
         - 1.0050309719415848e-02
         - -4.6150645725297626e-03
         - 2.7587946168197599e-03
         - 1.1908066760049256e-03
         - -5.8943425284873644e-03
         - 3.0370628674092831e-04
         - 4.6521120068556401e-03
         - 4.9127501367739938e-04
         - 1.1335542830214453e-02
         - -1.1331514369911996e-02
         - -1.7061078972809122e-03
         - 1.3861409634083320e-02
         - -2.1497719669629346e-03
         - 7.5855498510076875e-03
         - 6.5749975338342242e-03
         - -2.5907404823942372e-03
         - 1.0443553177074851e-02
         - 2.5138640291794906e-03
         - -1.9809678025209618e-04
         - -1.0397826815825054e-02
         - -3.1933092287428719e-03
         - 1.2058270174969182e-03
         - 1.2416898808864048e-02
         - -1.0843868321133996e-02
         - 8.4237634811529308e-03
         - 6.1430195145447163e-03
         - -5.5690115170987766e-03
         - -1.2167007154770164e-03
         - 1.1378904348757419e-02
         - 4.5897421747143124e-03
         - 9.3365928514143048e-03
         - -9.8013792246389314e-03
         - -4.7279199460589506e-04
         - 2.1457741547665009e-03
         - -1.0442573757968603e-02
         - -1.0381189800014765e-02
         - -9.9629162961918693e-04
         - 6.5087400858082241e-03
         - -4.6968661172064339e-03
         - -1.4019848045551094e-03
         - -7.4230662600291786e-03
         - 7.6558724822618010e-03
         - -3.3436782642893427e-03
         - -4.5945712536723865e-03
         - 7.8520583509614078e-03
         - -7.9564801631536348e-03
         - -8.9144825831046701e-03
         - -7.7401868436039519e-03
         - 1.1141961184085644e-03
         - -3.4537777085444218e-03
         - -7.2459129100127116e-04
         - 4.4053373459361240e-03
         - -9.0813380953122854e-03
         - 5.3576220712973485e-03
         - -4.4386644898370678e-03
         - 1.0563786932798323e-02
         - -2.7687547099411467e-03
         - 1.3189954945126881e-03
         - -4.5606474555352347e-03
         - 8.4734517976973490e-03
         - 1.9225191876157057e-03
         - 8.3318819355755712e-03
         - -1.3148236364240761e-03
         - -2.5624406945812927e-03
         - -4.4637157224852956e-03
         - -8.0719216976087010e-03
         - 6.6095923848094101e-03
         - -1.2413665413608462e-03
         - 1.1699512197963124e-02
         - -1.1474897991644584e-02
         - -6.6956611240622669e-03
         - 1.0671077085555045e-02
         - -3.3084161657241863e-03
         - 3.6631885546156429e-03
         - -4.6596478820078845e-03
         - 3.5573704958820587e-03
         - -4.6563940494455287e-03
         - 2.9021057615239727e-03
         - -1.5037024796363870e-02
         - 6.6536476384605175e-03
         - -2.9066666085897875e-03
         - -6.3456141176732404e-03
         - -6.8927097994972960e-03
         - 9.7179406241596974e-03
         - -3.6997453276244583e-03
         - -1.1790746082720311e-02
         - -3.6888908286809604e-03
         - -9.5790187026017111e-03
         - 1.0316128439681795e-02
         - 1.0608579426541915e-02
         - 1.1158194095858948e-03
         - -1.1496520213530207e-02
         - -2.3892487356952179e-03
         - -2.4151289839393774e-03
         - -8.8937992778440750e-03
         - -6.2557842006940945e-03
         - 6.3624859188125289e-03
         - -1.0412178647583768e-03
         - 7.9528728825588122e-03
         - 1.6619206507548770e-03
         - 1.0709047689618310e-02
         - -9.5170569971405623e-03
         - 8.7740083584131773e-05
         - 1.8916410769528717e-03
         - -3.6794738626665861e-03
         - -1.1161853350406935e-02
         - -2.5265799434216894e-03
         - -1.5153601441332603e-02
         - 8.4029653453897950e-03
         - 7.9463343256783552e-03
         - 6.1397399910341471e-03
         - -2.1203691540764074e-03
         - -6.7451008451691638e-04
         - 6.3962095185039099e-03
         - -6.5770312349457366e-04
         - 3.4913633939490231e-03
         - -8.8414946974937798e-03
         - 7.8480637189554704e-03
         - -7.9639978853732717e-03
         - 9.2171767044475945e-03
         - -8.0066138734236191e-03
         - 1.3942820513014448e-03
         - 6.0521113444379293e-03
         - 6.2352526782247578e-03
         - -4.8774207865031624e-03
         - -1.4451346360281423e-02
         - 5.1924615906570977e-03
         - 7.7801483943950858e-03
         - 8.4642489814945650e-03
         - -3.4113479663142468e-03
         - 5.4184268200583004e-03
         - 5.5356565253430268e-03
         - -4.5636460961871071e-03
         - 1.0846704024230980e-02
         - -6.0009414645181836e-03
         - 2.0232546045623493e-03
         - 7.5774289343640885e-03
         - 1.7044402820620432e-03
         - -8.7708389516994063e-03
         - -9.5494204894333243e-04
         - 4.5110579946783776e-03
         - -4.8221030469862607e-03
         - 7.7970574015154516e-03
         - -2.5927273984250412e-03
         - -1.2545242961407700e-02
         - -3.2316196838139614e-03
         - -5.7402976964034298e-03
         - -2.9696642156155488e-03
         - 4.2001195162893563e-03
         - -3.4334570156197437e-04
         - -9.1611239484637435e-03
         - -8.6298423797092280e-03
         - -7.6860610588998339e-03
         - 5.0908962356640709e-03
         - 3.9860299920475434e-03
         - -5.6670659434006898e-03
         - 1.2557129471735232e-03
         - -5.9920770514620492e-03
         - 9.5942841200526673e-03
         - -4.9777271266423749e-03
         - -2.4690239470421057e-04
         - -1.6665220460075861e-03
         - 7.0635401996078590e-03
         - 6.9991767019826033e-03
         - 2.1238152144577738e-03
         - 8.1112179330921734e-03
         - 1.1637282920385170e-02
         - 4.4517504433315303e-03
         - 7.6541129186546483e-03
         - -6.6924370978011160e-03
         - 2.7715108289673679e-03
         - -4.5689282221474782e-03
         - -1.4898644818222732e-04
         - -6.5552343167176140e-03
         - -6.4999960450842307e-03
         - -8.2192057908751018e-03
         - 1.6738368611726260e-03
         - 7.7418898315334359e-03
         - -8.0875148964667572e-03
         - -7.2598277729745081e-03
         - 2.1112602757463730e-03
         - 5.2639021527039380e-04
         - -3.9212464449799216e-03
         - -8.3755743656227614e-03
         - 2.3947353448396437e-03
         - 3.3810310437175817e-03
         - -8.5194316180994475e-03
         - 7.8520680458722041e-04
         - 1.3205586645095099e-02
         - 2.8838220200654188e-03
         - -1.3565623819426578e-03
         - -2.0123865566481309e-03
         - -7.2883340330245888e-03
         - -2.6702649398324049e-03
         - -3.7856856294346893e-03
         - -7.1858818160501709e-03
         - -5.1211486736793448e-03
         - 1.3859549255752258e-02
         - -8.2102787780696154e-03
         - -5.3081897988000318e-03
         - -2.8369005322946171e-03
         - -6.2785625991562443e-03
         - -1.6747467026748438e-03
         - 8.9712384942840315e-03
         - 4.8583559294689653e-03
         - 3.9483690563296633e-03
         - 7.3998029681744187e-03
         - -6.7901289075023869e-03
         - -4.8601098342258894e-03
         - -6.5086205899386462e-03
         - -4.6509153030875813e-03
         - -7.6446551224662656e-03
         - -9.8628186147593361e-03
         - -7.1410803750867474e-03
         - -9.6094076987123574e-03
         - 7.5415453706273259e-03
         - -6.9064749614035871e-03
         - 1.7066146200276527e-03
         - 1.1162175098774627e-02
         - 7.7084679301577278e-03
         - -1.6516833187524202e-03
         - -1.0109777461808182e-02
         - -1.0150680949389827e-03
         - -7.4009515378995949e-03
         - -3.8644799000033692e-03
         - -1.6643351633048354e-02
         - -1.1143822524342054e-02
         - -2.0962516420113483e-02
         - -7.4404610106273998e-03
         - -7.0803230297018828e-03
         - -3.1056192493659832e-03
         - 1.1147694769512544e-02
         - -3.4654669947984489e-03
         - 8.7182549812784230e-03
         - -7.9761184243269910e-03
         - 6.3168831277431456e-03
         - 1.0818728308691556e-02
         - -2.7374745510937812e-02
         - 1.1779191921756114e-02
         - 1.7634333455058254e-02
         - 6.5677566989861816e-03
         - 1.2344339138758058e-02
         - 1.0080898644202176e-02
         - -2.0297353644538756e-02
         - -1.0352405658181841e-02
         - -2.6892274830698778e-02
         - 1.4623987734616102e-02
         - -1.3607203526951904e-02
         - -6.2541322944467551e-03
         - -1.1239604639660955e-02
         - -9.2887592226926687e-03
         - 2.1929613857848064e-02
         - -1.3432020337191658e-02
         - 4.6187390021179111e-03
         - -1.4428080432449641e-03
         - 2.5414427179299027e-02
         - 1.9976603443489310e-02
         - -2.6619851530686526e-02
         - -9.5849771524035947e-03
         - -2.7009029732728031e-02
         - 5.0358436240222244e-03
         - 1.4024264985245715e-02
         - 1.8118854147326141e-02
         - -8.4298776793389728e-03
         - -9.4589189136678169e-03
         - 1.3742528741291342e-03
         - 8.8927483566394235e-03
         - 1.2230535030887352e-02
         - 9.6184510068279792e-03
         - 1.3949771936489675e-02
         - 2.1148450402289419e-03
         - -1.2452918387383292e-02
         - 7.5947908022232745e-03
         - -1.1709985083834700e-02
         - 1.9514124155062412e-03
         - -3.6113234635543026e-03
         - -1.0030417965981194e-02
         - 1.3909210929082684e-03
         - 8.6853302629165217e-03
         - 1.1057788023480598e-02
         - -1.4534018158873480e-02
         - -6.3272377549986542e-03
         - -2.0362030265512063e-02
         - -2.2860463418390058e-03
         - 9.1149106052639227e-03
         - 9.4794103085610541e-03
         - -6.4663247457408509e-03
         - 5.5110848088983947e-03
         - 4.3870487571204611e-03
         - -2.4248786692120565e-03
         - 3.2744660738062369e-03
         - -5.4650148494041302e-03
         - -1.2434102590405637e-03
         - -7.0068422798591551e-03
         - 3.0537542990412268e-03
         - 8.7416749569600976e-03
         - 4.4893532272437470e-03
         - 1.2924558835655449e-02
         - 2.2958596549469122e-03
         - -1.2487886032069387e-02
         - 6.7844649201307975e-03
         - -8.9273104451121320e-03
         - 6.8514202033994253e-04
         - 1.7197048291406229e-02
         - 8.3082614362375868e-03
         - -7.3685121905885595e-03
         - 2.5506965374105534e-03
         - -1.6307089075482083e-03
         - -6.8561128603320375e-03
         - 1.7076761637154817e-03
         - -8.2435242789900189e-03
         - -3.5024467755554326e-03
         - -4.2513539578000635e-03
         - -2.9786130341922031e-03
         - -8.8704051079414210e-03
         - -1.0911885259416620e-02
         - -2.1062715527357780e-03
         - -4.9777169285422423e-04
         - -1.2902934636950228e-03
         - -1.6205945227125915e-03
         - 4.6381718327042727e-03
         - 3.7063821803797733e-04
         - 3.9891483580010312e-03
         - 6.3738853093801701e-03
         - 2.7386842687389034e-03
         - -5.4892566126692873e-03
         - -1.0809673029032402e-02
         - 2.5745391199835615e-03
         - 4.5369595251235255e-03
         - -5.3765985099325179e-03
         - 1.6626889467544058e-03
         - 2.4993125126641458e-04
         - 4.3250934751640309e-03
         - 6.3352563294073782e-03
         - -7.5771072985411757e-03
         - -8.1824550608246421e-03
         - 1.0669569749965595e-02
         - 4.5506917553902033e-04
         - 1.1676322993226240e-02
         - 1.7090286920411729e-03
         - 3.5392377381868495e-03
         - 1.0629527836812222e-02
         - 9.1203521767193266e-03
         - 1.1391810885950400e-02
         - -7.9458827840032664e-03
         - 1.0604297975800535e-02
         - 8.8216083294565834e-03
         - -6.3093585691036418e-04
         - 8.7649499694089136e-03
         - -5.8128599428914334e-03
         - 5.0670269066392236e-04
         - -9.1427858269422617e-03
         - -8.7957131329941748e-03
         - -1.0862420912581104e-02
         - 1.3049055271095619e-02
         - 2.2954381037753677e-04
         - 3.0434916344073805e-03
         - 2.5142928102792308e-02
         - 1.0015344935082905e-03
         - -1.4539004561816655e-02
         - -1.1585717812147799e-02
         - -5.7460820874784546e-03
         - -2.5359025975622558e-03
         - 3.3643512360933595e-03
         - 2.3314926526136989e-03
         - 1.7034821450015305e-02
         - 6.2130526861215894e-04
         - 2.0034125103445613e-02
         - 1.3735194293840226e-02
         - 1.0662345118442731e-02
         - 1.4720578607594154e-02
         - -2.7799193495661040e-03
         - 7.1164759419154924e-03
         - -1.9905987672483205e-02
         - -8.7024271663240574e-03
         - -1.2469915677407564e-02
         - 4.0235771399499577e-04
         - 1.0922286092607879e-02
         - 1.6557231625925543e-02
         - 1.7133261991504709e-02
         - 7.9822950140689356e-03
         - -4.6640827254381722e-03
         - -1.0543412965492265e-02
         - 4.7504695750983303e-03
         - 1.0633046334862537e-02
         - -5.3335866963516616e-03
         - -6.3410491021651935e-03
         - -4.6132391604223255e-03
         - -5.2599719650085113e-04
         - 7.1652371938631613e-03
         - 7.2528103608975082e-03
         - -4.3535644018610131e-03
         - -1.3179664149346345e-02
         - 1.2684934854102190e-02
         - -2.1494663547405109e-03
         - 3.4997703604356784e-03
         - -5.1242176396772638e-03
         - 4.6967840610570698e-03
         - 8.4523384982397853e-05
         - 1.0883823834006812e-02
         - 5.5260084143004731e-03
         - -4.1257802952739328e-03
         - 1.6157156103735460e-03
         - -1.0386945625712740e-03
         - -1.2807858851801681e-02
         - 6.3335963268459005e-03
         - -1.2845643332279083e-03
         - 1.6285819844656588e-02
         - 1.9763537161355996e-02
         - -1.0750750582095328e-02
         - -1.7201395887481315e-03
         - 3.9073086777403282e-03
         - -6.0078693375541625e-03
         - -2.5386764914965537e-03
         - 4.7786086494707178e-03
         - 2.3532814102005407e-03
         - -1.0467003852225440e-02
         - 3.1505116567786817e-02
         - -8.1568565013256048e-03
         - -5.3910193764492029e-03
         - -6.1031949646416332e-03
         - -1.6350417339822881e-02
         - -1.0082911159783912e-02
         - 2.4408317312100219e-02
         - 7.7746887643623617e-03
         - 1.4900223529276746e-02
         - -1.9773410627391380e-02
         - 1.3798227250671596e-02
         - 1.7857881807133474e-02
         - 1.5719859778346883e-02
         - 4.1325311605092969e-03
         - -2.2719062880269425e-02
         - -6.2940133601233159e-03
         - -7.0006695224286773e-04
         - -9.7746894731120023e-03
         - -1.4437435004898219e-02
         - -3.1093513486891511e-03
         - 1.3905902483050655e-02
         - 1.7640847959337604e-02
         - 2.2545987463502684e-02
         - -6.4051618354260299e-03
         - -4.3631402180514664e-03
         - -1.5650778447003535e-02
         - -3.4021796681608860e-03
         - -1.8027408034312596e-03
         - 8.8827146931215444e-03
         - -6.5892263958951276e-03
         - -1.4585641845555136e-02
         - 2.6045209006062670e-03
         - -1.5699919054267986e-02
         - 1.6325612457827147e-02
         - -3.0393299438722975e-03
         - -1.4280780603318239e-02
         - 1.7149092390973810e-02
         - -6.5764037974462412e-04
         - -6.4491332513823369e-03
         - 7.2925758724206036e-03
         - 7.6867515377721778e-03
         - 7.8845301280576451e-03
         - -9.4762216084478441e-03
         - 1.5241246384968756e-02
         - 1.4212442537918417e-02
         - 1.2513995844345375e-02
         - -8.5851092063938712e-03
         - 8.1102219539014204e-03
         - -2.5978390266955245e-03
         - -1.0874342580622606e-02
         - -1.5130405821212282e-03
         - 8.8177173843330871e-03
         - -2.8722987723523697e-03
         - 1.1454649730864262e-02
         - 1.0504738610499994e-03
         - 2.7696689952498087e-03
         - 3.6241184236340432e-03
         - 2.6717921254195325e-03
         - 3.5331478326773485e-03
         - -7.8742937827899276e-03
         - 6.6790379994630632e-03
         - -3.4933909765789777e-03
         - -7.4188213005579162e-03
         - -7.7575519730891246e-03
         - -3.9361254553791046e-03
         - -5.5878856960992545e-03
         - 8.4693291208084998e-03
         - 7.6369165690653032e-03
         - 6.8200947163526548e-03
         - -1.6853349173434290e-03
         - -1.0441389881805020e-02
         - 3.1348337884751516e-03
         - -8.3838714448178919e-03
         - -5.6222622321049900e-03
         - 4.5122784445460916e-03
         - 2.0156596585934310e-03
         - 1.1221665062962651e-02
         - 2.8779686860658763e-03
         - -2.7098442411706758e-03
         - -9.0520174860009659e-03
         - 1.8448503093113813e-03
         - -6.8837657802804869e-03
         - -5.0371812679448702e-03
         - -3.1905932734315814e-03
         - -9.0198804274135101e-03
         - -8.9915634451089681e-03
         - -3.8035923146868328e-03
         - 6.8264104225028259e-03
         - -4.9696026378796476e-03
         - -1.0798433899264506e-02
         - 6.8708314193546144e-03
         - -8.5042957393978864e-05
         - -1.7244940944744602e-03
         - 1.1588353128220175e-02
         - -6.1192072875703211e-04
         - 3.4814786976826947e-03
         - -6.5041371722076901e-03
         - -1.3512881138794104e-02
         - -5.8439294528647261e-03
         - 6.8460341120095735e-03
         - -4.1037828372582300e-03
         - -1.7393343777924329e-03
         - 3.0462582127551972e-03
         - -4.9483189955078655e-03
         - 4.4976028060680767e-03
         - 4.0575789748531930e-03
         - 4.5036579445886212e-03
         - 6.8061899336733598e-03
         - 8.6005280654870807e-03
         - 7.7737091418840082e-03
         - 6.9386319407528565e-03
         - 6.0181272361637030e-03
         - -5.8862253535581438e-03
         - -1.0847490951171639e-02
         - -6.0349642185829383e-05
         - -9.6539122880016006e-03
         - 9.0908214102972014e-03
         - -5.5661149901027399e-03
         - 4.3979286350455064e-03
         - 1.2909677965811390e-03
         - 1.0615792578550132e-02
         - 8.3653197303148290e-03
         - -4.9497360791964625e-03
         - -7.7846972235067714e-03
         - 5.6831301712350207e-03
         - 1.3356968946288605e-03
         - -9.1457015626887732e-03
         - -1.2625847134628875e-03
         - -1.4439145894297068e-03
         - 7.6230801892666396e-03
         - -8.2082112944414799e-03
         - -4.4973234980410842e-03
         - -3.9028629488052692e-03
         - 8.6131142967582879e-03
         - 9.3239070616536971e-03
         - 1.0185237472351099e-02
         - 4.4353562148469654e-03
         - 6.7945908476457579e-03
         - 8.8244089902267345e-03
         - 6.2825723736869531e-03
         - 5.3744006877939465e-03
         - 7.5278935830411127e-03
         - -6.5134656034612484e-03
         - -1.0134663504237593e-02
         - 1.1656787236895092e-03
         - 7.3213266131223137e-03
         - 6.8964044614319101e-03
         - 1.0360295454076875e-02
         - -6.1635361047667940e-03
         - 8.9021526451252640e-03
         - 5.9433233770544557e-03
         - 6.3520849783425511e-03
         - 1.3760352603399558e-03
         - -9.5388771640954866e-03
         - -1.0127617085264985e-02
         - 4.2835535445627966e-03
         - -4.0804143144609522e-03
         - 1.3737536881011777e-03
         - -3.5469946791779391e-03
         - 4.1268202071501024e-03
         - 8.8454822876773021e-04
         - -4.4125077693592217e-03
         - 4.5024442101217130e-03
         - 3.8252961658554476e-03
         - -2.1630305554767287e-03
         - 5.0411546731364467e-03
         - -5.6414115129144139e-03
         - 1.0455748778349630e-02
         - -1.1885009512050945e-02
         - -6.7681055073131741e-03
         - -1.4362659149332003e-02
         - -2.7467379063440725e-02
         - -3.7633810836381304e-03
         - 2.2438192456909270e-02
         - 1.4059969576477595e-02
         - -1.8179775000583331e-02
         - -1.0866352788319539e-03
         - -1.9339798312626135e-02
         - 1.7935325116054557e-02
         - 1.2145864010227757e-02
         - -3.0503715290330823e-02
         - 2.8051105882196817e-03
         - 2.2773511873296123e-02
         - 4.9981781191110177e-03
         - 3.5803117228365459e-03
         - 4.6672244451213783e-03
         - -8.1332013237310138e-03
         - -1.6998224101363361e-02
         - -4.0831329365942096e-02
         - 2.7650699140793701e-03
         - -6.9507238379129099e-03
         - -2.2206363087226939e-03
         - -2.1628131722699291e-02
         - -9.4556646067332304e-03
         - 2.4184233554089288e-02
         - 5.1721570166349887e-03
         - 2.1357108660612936e-02
         - 7.6922607716168878e-03
         - 2.4018863232603646e-02
         - 1.6795988517573086e-02
         - -1.5388648853260209e-02
         - -2.3131615232940154e-02
         - -2.9267798172677238e-02
         - 9.4609953396569794e-03
         - 1.7295976741348949e-02
         - 1.0392070396396287e-02
         - -8.4041880914773291e-03
         - -3.9461168889518665e-03
         - 1.6838729039932211e-03
         - 1.0665951028488425e-02
         - 2.5170373481145265e-02
         - 1.8509303972574862e-02
         - 2.7338708451892218e-03
         - -1.1855888718834542e-02
         - -3.0341795720834801e-03
         - 3.9639002491965985e-03
         - 5.4103073029913374e-03
         - 4.5358430735450402e-03
         - -1.6586157935890466e-02
         - 4.5847160927161897e-03
         - -3.8891169235002126e-04
         - -4.3230463987089032e-03
         - 1.4425311470367280e-02
         - -3.4053745274984809e-02
         - -2.3890822731064420e-02
         - -1.8590136629347529e-02
         - 7.9390987446018250e-03
         - 2.3612854718650825e-03
         - 7.2608138626299341e-03
         - 5.8735737944217012e-03
         - 9.7835647639655070e-03
         - -7.5891192553547695e-03
         - -7.2170006396254786e-04
         - -9.3503886050530505e-03
         - 1.0110280491574079e-02
         - 4.8203346288872104e-03
         - 1.8282060111133901e-03
         - 9.2527178953600037e-03
         - -7.9636136503219695e-03
         - 2.6421266044347222e-03
         - 1.1518077048775580e-04
         - -1.8105190620923228e-03
         - 3.1589702802834211e-04
         - 3.7360610933394964e-03
         - -3.0053981042750815e-03
         - 9.4811394308332748e-03
         - 1.1697594473455265e-02
         - 5.0123641812884348e-03
         - -1.2444837333071945e-03
         - 7.2113103141988270e-03
         - -7.2529244580423749e-03
         - 1.0534294577255203e-02
         - -1.0143704305272432e-02
         - -7.4373128377777358e-03
         - 6.3094606797005097e-03
         - 1.9493483914131177e-03
         - -9.1166959661406859e-03
         - -7.6014532627669234e-04
         - -2.2626756197305282e-03
         - 6.9553876124798537e-03
         - -4.9296939298037632e-03
         - 3.5564701833712973e-04
         - -8.4502149422353932e-03
         - 8.1658529160087822e-03
         - -2.8441469619532733e-04
         - -6.0774024037363967e-03
         - -1.5840121481990768e-03
         - -4.6841188269782360e-03
         - 9.7238247646786284e-03
         - -4.4289435045461551e-03
         - -1.0027909591108114e-02
         - 6.9035407407242368e-03
         - -9.6708801065640733e-03
         - -8.7487897884525965e-03
         - 3.0353060959113702e-03
         - 8.7828311455714816e-03
         - -1.5506059154924909e-03
         - 3.8723802451194941e-03
         - 2.4550231941279526e-03
         - 7.6864563923999454e-03
         - -5.1259948437462110e-03
         - 8.2278398811014650e-03
         - -1.5331151233768309e-03
         - -6.6142401527554224e-03
         - -4.2888030294828804e-03
         - 6.4965970599289435e-03
         - 6.9426159398344094e-04
         - 7.3911962452737684e-03
         - -1.2352237599041168e-02
         - 7.2555856763351911e-03
         - 6.8981183427865621e-03
         - -5.9988411894754113e-04
         - -8.1960337689432165e-03
         - 1.0575749587846014e-02
         - 7.4698566131872583e-03
         - -9.6532956398735544e-03
         - 8.2618415845110392e-03
         - -5.9042719206351220e-03
         - -1.8674588534916220e-03
         - -6.0124171916778090e-03
         - -1.2688315017457583e-02
         - -1.0160817085149052e-02
         - -7.9566286690284822e-03
         - 1.5005548246470406e-03
         - -1.9636243718152958e-03
         - -4.8456737481849853e-03
         - 8.1477464681126120e-03
         - 7.5779235224820943e-03
         - 3.3981942074211313e-04
         - 4.3283439288248002e-03
         - -4.8266570343598767e-03
         - 5.8963398099408501e-03
         - 1.0726152200380663e-02
         - -6.4226156004678755e-03
         - -8.2894656481161278e-03
         - -1.0000417448661359e-02
         - -1.0178418881794811e-02
         - -4.9123973221979747e-03
         - 1.2615269390243836e-02
         - -6.2301198352463243e-04
         - -1.1990281371601366e-02
         - 5.5904776828190374e-03
         - 6.7450791350551174e-03
         - -1.0258525166981114e-02
         - -3.9420738634010381e-03
         - 2.4397646992538121e-03
         - -9.7425402888923970e-03
         - 9.4003781075070562e-03
         - -1.0429365357516766e-02
         - -1.2728772210510322e-03
         - 1.1142436419902145e-02
         - -5.3071424849882257e-03
         - 1.1944840531103586e-03
         - -3.5476055023252631e-03
         - 9.7726808728914281e-03
         - -9.2174416222855094e-03
         - 5.8804662050035081e-04
         - -1.0202487586369791e-02
         - -9.7238098664578377e-03
         - -5.2619735831895410e-04
         - 2.9912585180363351e-04
         - -7.6532032173932292e-03
         - 2.1258196533735347e-03
         - 5.2102039643292901e-03
         - 5.3248439787129311e-03
         - -3.6141447595881321e-03
         - -6.8617395715874869e-03
         - 5.9695952623433409e-03
         - -7.9244902883638616e-03
         - -7.4163439509779419e-03
         - -8.2077395582271194e-03
         - 2.8329409830551893e-03
         - 6.8514393549534503e-03
         - -4.7337827694844022e-03
         - 1.0920972959503715e-02
         - -3.0965798092884669e-03
         - -9.5310759876156004e-03
         - -4.6291108769236314e-03
         - 2.2612563117675559e-03
         - 3.1912476252707401e-03
         - 1.1686661317901671e-02
         - 1.0434177612890267e-02
         - 4.2886225901782992e-03
         - 4.2775649128735166e-03
         - -2.4952256639547169e-03
         - 4.8916229333503492e-03
         - -3.5117085002052007e-03
         - 3.0100956611368072e-03
         - -3.5701277663116116e-03
         - -3.0168562557321959e-03
         - 2.8859313108536800e-03
         - -7.7097316142346606e-03
         - -8.5077213748926683e-03
         - -3.7164389622005065e-04
         - 4.8157719515768186e-04
         - 9.7597536147000560e-03
         - -8.7739640169694610e-03
         - -3.4029826984135962e-03
         - -5.8570853848813626e-03
         - 1.1963795126854349e-03
         - 4.8153585655071598e-03
         - 1.0267429737215178e-02
         - -9.5240636207428921e-03
         - -4.5820159279909706e-03
         - -6.1966336487577775e-03
         - -6.3739890895423952e-03
